<?xml version="1.0"?>
<opencv_storage>
<cascade>
  <stageType>BOOST</stageType>
  <featureType>HAAR</featureType>
  <height>20</height>
  <width>20</width>
  <stageParams>
    <boostType>GAB</boostType>
    <minHitRate>9.9500000476837158e-01</minHitRate>
    <maxFalseAlarm>5.0000000000000000e-01</maxFalseAlarm>
    <weightTrimRate>9.4999999999999996e-01</weightTrimRate>
    <maxDepth>1</maxDepth>
    <maxWeakCount>100</maxWeakCount></stageParams>
  <featureParams>
    <maxCatCount>0</maxCatCount>
    <featSize>1</featSize>
    <mode>BASIC</mode></featureParams>
  <stageNum>10</stageNum>
  <stages>
    <!-- stage 0 -->
    <_>
      <maxWeakCount>5</maxWeakCount>
      <stageThreshold>-1.1992691755294800e+00</stageThreshold>
      <weakClassifiers>
        <_>
          <internalNodes>
            0 -1 38 7.6227989047765732e-03</internalNodes>
          <leafValues>
            -6.8644070625305176e-01 8.0155640840530396e-01</leafValues></_>
        <_>
          <internalNodes>
            0 -1 52 -1.1112540960311890e-02</internalNodes>
          <leafValues>
            7.3852246999740601e-01 -5.6773328781127930e-01</leafValues></_>
        <_>
          <internalNodes>
            0 -1 48 4.4844262301921844e-02</internalNodes>
          <leafValues>
            -3.3690625429153442e-01 9.5336568355560303e-01</leafValues></_>
        <_>
          <internalNodes>
            0 -1 58 3.2696835696697235e-03</internalNodes>
          <leafValues>
            -3.3155870437622070e-01 6.6657096147537231e-01</leafValues></_>
        <_>
          <internalNodes>
            0 -1 4 -1.0594884864985943e-02</internalNodes>
          <leafValues>
            7.2336977720260620e-01 -4.6963164210319519e-01</leafValues></_></weakClassifiers></_>
    <!-- stage 1 -->
    <_>
      <maxWeakCount>6</maxWeakCount>
      <stageThreshold>-4.9305754899978638e-01</stageThreshold>
      <weakClassifiers>
        <_>
          <internalNodes>
            0 -1 31 5.2809230983257294e-03</internalNodes>
          <leafValues>
            -4.5851528644561768e-01 6.8138194084167480e-01</leafValues></_>
        <_>
          <internalNodes>
            0 -1 51 6.8749659694731236e-03</internalNodes>
          <leafValues>
            -3.3067494630813599e-01 8.3451545238494873e-01</leafValues></_>
        <_>
          <internalNodes>
            0 -1 35 -2.2858586162328720e-02</internalNodes>
          <leafValues>
            -8.8848865032196045e-01 3.0657163262367249e-01</leafValues></_>
        <_>
          <internalNodes>
            0 -1 34 2.5160789489746094e-02</internalNodes>
          <leafValues>
            2.5496536493301392e-01 -9.0256023406982422e-01</leafValues></_>
        <_>
          <internalNodes>
            0 -1 32 -2.8792782686650753e-03</internalNodes>
          <leafValues>
            5.1238113641738892e-01 -4.4292044639587402e-01</leafValues></_>
        <_>
          <internalNodes>
            0 -1 15 2.2286370396614075e-02</internalNodes>
          <leafValues>
            2.3267918825149536e-01 -9.2864286899566650e-01</leafValues></_></weakClassifiers></_>
    <!-- stage 2 -->
    <_>
      <maxWeakCount>5</maxWeakCount>
      <stageThreshold>-6.2362432479858398e-01</stageThreshold>
      <weakClassifiers>
        <_>
          <internalNodes>
            0 -1 19 -8.1075765192508698e-03</internalNodes>
          <leafValues>
            -8.5365855693817139e-01 5.6618821620941162e-01</leafValues></_>
        <_>
          <internalNodes>
            0 -1 47 3.6598369479179382e-02</internalNodes>
          <leafValues>
            -4.0771657228469849e-01 7.4995613098144531e-01</leafValues></_>
        <_>
          <internalNodes>
            0 -1 33 -1.5302641317248344e-02</internalNodes>
          <leafValues>
            5.3672015666961670e-01 -5.7668703794479370e-01</leafValues></_>
        <_>
          <internalNodes>
            0 -1 46 5.5426512844860554e-03</internalNodes>
          <leafValues>
            -6.7820709943771362e-01 3.9175340533256531e-01</leafValues></_>
        <_>
          <internalNodes>
            0 -1 73 3.9966879412531853e-03</internalNodes>
          <leafValues>
            -2.9072278738021851e-01 7.9066222906112671e-01</leafValues></_></weakClassifiers></_>
    <!-- stage 3 -->
    <_>
      <maxWeakCount>8</maxWeakCount>
      <stageThreshold>-8.4472852945327759e-01</stageThreshold>
      <weakClassifiers>
        <_>
          <internalNodes>
            0 -1 30 1.5036703553050756e-04</internalNodes>
          <leafValues>
            -7.4576270580291748e-01 5.3481012582778931e-01</leafValues></_>
        <_>
          <internalNodes>
            0 -1 43 4.2323227971792221e-03</internalNodes>
          <leafValues>
            -5.4539877176284790e-01 4.7090712189674377e-01</leafValues></_>
        <_>
          <internalNodes>
            0 -1 61 -7.7428407967090607e-03</internalNodes>
          <leafValues>
            5.6945526599884033e-01 -3.5119530558586121e-01</leafValues></_>
        <_>
          <internalNodes>
            0 -1 26 1.5898879617452621e-02</internalNodes>
          <leafValues>
            2.6750773191452026e-01 -7.9236710071563721e-01</leafValues></_>
        <_>
          <internalNodes>
            0 -1 23 9.4396602362394333e-03</internalNodes>
          <leafValues>
            -3.2515242695808411e-01 7.3247390985488892e-01</leafValues></_>
        <_>
          <internalNodes>
            0 -1 3 -1.6630295664072037e-02</internalNodes>
          <leafValues>
            7.0516389608383179e-01 -2.7625855803489685e-01</leafValues></_>
        <_>
          <internalNodes>
            0 -1 60 -3.4885585773736238e-04</internalNodes>
          <leafValues>
            -6.8875354528427124e-01 2.9791018366813660e-01</leafValues></_>
        <_>
          <internalNodes>
            0 -1 55 1.0285861790180206e-03</internalNodes>
          <leafValues>
            -4.4695147871971130e-01 3.7975659966468811e-01</leafValues></_></weakClassifiers></_>
    <!-- stage 4 -->
    <_>
      <maxWeakCount>8</maxWeakCount>
      <stageThreshold>-9.0274041891098022e-01</stageThreshold>
      <weakClassifiers>
        <_>
          <internalNodes>
            0 -1 57 4.1980620473623276e-02</internalNodes>
          <leafValues>
            -4.0572792291641235e-02 8.0664652585983276e-01</leafValues></_>
        <_>
          <internalNodes>
            0 -1 64 -1.1529218405485153e-02</internalNodes>
          <leafValues>
            4.8452600836753845e-01 -4.1072297096252441e-01</leafValues></_>
        <_>
          <internalNodes>
            0 -1 74 -1.6787983477115631e-02</internalNodes>
          <leafValues>
            6.9258201122283936e-01 -2.4424718320369720e-01</leafValues></_>
        <_>
          <internalNodes>
            0 -1 10 -2.4227579124271870e-03</internalNodes>
          <leafValues>
            6.0876709222793579e-01 -2.7757751941680908e-01</leafValues></_>
        <_>
          <internalNodes>
            0 -1 18 -1.3620241079479456e-03</internalNodes>
          <leafValues>
            5.3562021255493164e-01 -2.9949244856834412e-01</leafValues></_>
        <_>
          <internalNodes>
            0 -1 20 1.5049740672111511e-02</internalNodes>
          <leafValues>
            2.0299771428108215e-01 -9.4455391168594360e-01</leafValues></_>
        <_>
          <internalNodes>
            0 -1 0 1.4168904721736908e-01</internalNodes>
          <leafValues>
            -2.5528290867805481e-01 7.2549849748611450e-01</leafValues></_>
        <_>
          <internalNodes>
            0 -1 9 -3.3316700719296932e-03</internalNodes>
          <leafValues>
            4.0745458006858826e-01 -4.7309133410453796e-01</leafValues></_></weakClassifiers></_>
    <!-- stage 5 -->
    <_>
      <maxWeakCount>6</maxWeakCount>
      <stageThreshold>-6.2634688615798950e-01</stageThreshold>
      <weakClassifiers>
        <_>
          <internalNodes>
            0 -1 37 1.0109938681125641e-02</internalNodes>
          <leafValues>
            4.8281016945838928e-01 -9.0123456716537476e-01</leafValues></_>
        <_>
          <internalNodes>
            0 -1 6 3.2968763262033463e-02</internalNodes>
          <leafValues>
            -3.6162778735160828e-01 5.4414087533950806e-01</leafValues></_>
        <_>
          <internalNodes>
            0 -1 59 8.0179306678473949e-04</internalNodes>
          <leafValues>
            2.3847971856594086e-01 -7.4463468790054321e-01</leafValues></_>
        <_>
          <internalNodes>
            0 -1 14 -2.8483547270298004e-02</internalNodes>
          <leafValues>
            -7.5828874111175537e-01 1.7469240725040436e-01</leafValues></_>
        <_>
          <internalNodes>
            0 -1 72 2.5812978856265545e-03</internalNodes>
          <leafValues>
            -2.9231756925582886e-01 5.8423954248428345e-01</leafValues></_>
        <_>
          <internalNodes>
            0 -1 53 3.4662917256355286e-02</internalNodes>
          <leafValues>
            1.4194306731224060e-01 -9.5648139715194702e-01</leafValues></_></weakClassifiers></_>
    <!-- stage 6 -->
    <_>
      <maxWeakCount>9</maxWeakCount>
      <stageThreshold>-8.9643871784210205e-01</stageThreshold>
      <weakClassifiers>
        <_>
          <internalNodes>
            0 -1 65 2.1576805040240288e-02</internalNodes>
          <leafValues>
            5.5519479513168335e-01 -6.8656718730926514e-01</leafValues></_>
        <_>
          <internalNodes>
            0 -1 66 -2.3773718625307083e-02</internalNodes>
          <leafValues>
            5.5995273590087891e-01 -3.7709680199623108e-01</leafValues></_>
        <_>
          <internalNodes>
            0 -1 50 -2.5053126737475395e-03</internalNodes>
          <leafValues>
            5.1450836658477783e-01 -3.2830384373664856e-01</leafValues></_>
        <_>
          <internalNodes>
            0 -1 13 -2.8883080929517746e-02</internalNodes>
          <leafValues>
            -8.5630148649215698e-01 2.2221368551254272e-01</leafValues></_>
        <_>
          <internalNodes>
            0 -1 54 -3.2065326813608408e-03</internalNodes>
          <leafValues>
            5.3830021619796753e-01 -3.7648752331733704e-01</leafValues></_>
        <_>
          <internalNodes>
            0 -1 11 1.1342380195856094e-02</internalNodes>
          <leafValues>
            -2.1386310458183289e-01 8.3698302507400513e-01</leafValues></_>
        <_>
          <internalNodes>
            0 -1 5 -3.5905297845602036e-03</internalNodes>
          <leafValues>
            4.6754655241966248e-01 -3.1383404135704041e-01</leafValues></_>
        <_>
          <internalNodes>
            0 -1 1 1.0436831973493099e-02</internalNodes>
          <leafValues>
            -2.6583689451217651e-01 6.1065715551376343e-01</leafValues></_>
        <_>
          <internalNodes>
            0 -1 29 -1.0558253154158592e-02</internalNodes>
          <leafValues>
            -8.0971944332122803e-01 2.0157496631145477e-01</leafValues></_></weakClassifiers></_>
    <!-- stage 7 -->
    <_>
      <maxWeakCount>9</maxWeakCount>
      <stageThreshold>-4.8431727290153503e-01</stageThreshold>
      <weakClassifiers>
        <_>
          <internalNodes>
            0 -1 68 2.1551770623773336e-04</internalNodes>
          <leafValues>
            -4.2857143282890320e-01 5.5326461791992188e-01</leafValues></_>
        <_>
          <internalNodes>
            0 -1 49 -2.7950716321356595e-04</internalNodes>
          <leafValues>
            -7.2230798006057739e-01 2.7488854527473450e-01</leafValues></_>
        <_>
          <internalNodes>
            0 -1 63 2.1260054782032967e-03</internalNodes>
          <leafValues>
            -3.7169814109802246e-01 4.7534281015396118e-01</leafValues></_>
        <_>
          <internalNodes>
            0 -1 17 8.8632702827453613e-03</internalNodes>
          <leafValues>
            2.3936867713928223e-01 -6.5071457624435425e-01</leafValues></_>
        <_>
          <internalNodes>
            0 -1 42 -2.4832945317029953e-02</internalNodes>
          <leafValues>
            -9.4789081811904907e-01 1.2166520208120346e-01</leafValues></_>
        <_>
          <internalNodes>
            0 -1 24 -6.3742427155375481e-03</internalNodes>
          <leafValues>
            4.1443786025047302e-01 -3.5284981131553650e-01</leafValues></_>
        <_>
          <internalNodes>
            0 -1 22 3.3314548432826996e-02</internalNodes>
          <leafValues>
            -2.0404475927352905e-01 7.7710145711898804e-01</leafValues></_>
        <_>
          <internalNodes>
            0 -1 25 -1.3028433313593268e-03</internalNodes>
          <leafValues>
            2.5573238730430603e-01 -5.9582591056823730e-01</leafValues></_>
        <_>
          <internalNodes>
            0 -1 56 -1.4690151147078723e-04</internalNodes>
          <leafValues>
            2.1110090613365173e-01 -7.0304423570632935e-01</leafValues></_></weakClassifiers></_>
    <!-- stage 8 -->
    <_>
      <maxWeakCount>9</maxWeakCount>
      <stageThreshold>-9.4252556562423706e-01</stageThreshold>
      <weakClassifiers>
        <_>
          <internalNodes>
            0 -1 16 -1.7105191946029663e-02</internalNodes>
          <leafValues>
            -8.0219781398773193e-01 4.9013656377792358e-01</leafValues></_>
        <_>
          <internalNodes>
            0 -1 39 7.1734152734279633e-02</internalNodes>
          <leafValues>
            -3.3608058094978333e-01 7.2798156738281250e-01</leafValues></_>
        <_>
          <internalNodes>
            0 -1 36 9.7164476756006479e-04</internalNodes>
          <leafValues>
            -5.7939136028289795e-01 3.5727828741073608e-01</leafValues></_>
        <_>
          <internalNodes>
            0 -1 8 -1.1646628845483065e-03</internalNodes>
          <leafValues>
            3.7094122171401978e-01 -4.1931638121604919e-01</leafValues></_>
        <_>
          <internalNodes>
            0 -1 7 2.4568537250161171e-02</internalNodes>
          <leafValues>
            -2.2252200543880463e-01 7.6573175191879272e-01</leafValues></_>
        <_>
          <internalNodes>
            0 -1 27 1.0706093162298203e-02</internalNodes>
          <leafValues>
            1.9518131017684937e-01 -8.0695581436157227e-01</leafValues></_>
        <_>
          <internalNodes>
            0 -1 12 -2.6951991021633148e-03</internalNodes>
          <leafValues>
            3.6664110422134399e-01 -4.0825331211090088e-01</leafValues></_>
        <_>
          <internalNodes>
            0 -1 40 -1.1899381875991821e-02</internalNodes>
          <leafValues>
            -9.3507587909698486e-01 1.3944427669048309e-01</leafValues></_>
        <_>
          <internalNodes>
            0 -1 41 3.8148298859596252e-02</internalNodes>
          <leafValues>
            1.3635091483592987e-01 -8.7768840789794922e-01</leafValues></_></weakClassifiers></_>
    <!-- stage 9 -->
    <_>
      <maxWeakCount>10</maxWeakCount>
      <stageThreshold>-5.8096575736999512e-01</stageThreshold>
      <weakClassifiers>
        <_>
          <internalNodes>
            0 -1 69 -2.6376824826002121e-04</internalNodes>
          <leafValues>
            -4.2696627974510193e-01 5.6993007659912109e-01</leafValues></_>
        <_>
          <internalNodes>
            0 -1 44 6.8077389150857925e-03</internalNodes>
          <leafValues>
            -2.0069190859794617e-01 7.2006469964981079e-01</leafValues></_>
        <_>
          <internalNodes>
            0 -1 67 -3.7158101797103882e-02</internalNodes>
          <leafValues>
            4.9443852901458740e-01 -2.8227248787879944e-01</leafValues></_>
        <_>
          <internalNodes>
            0 -1 21 6.8907313980162144e-03</internalNodes>
          <leafValues>
            -2.2744056582450867e-01 7.7097779512405396e-01</leafValues></_>
        <_>
          <internalNodes>
            0 -1 45 3.0000447295606136e-03</internalNodes>
          <leafValues>
            -1.9255493581295013e-01 6.4538741111755371e-01</leafValues></_>
        <_>
          <internalNodes>
            0 -1 28 -1.1641819030046463e-02</internalNodes>
          <leafValues>
            -8.7041890621185303e-01 1.6752286255359650e-01</leafValues></_>
        <_>
          <internalNodes>
            0 -1 70 3.5786756779998541e-03</internalNodes>
          <leafValues>
            -3.8267564773559570e-01 3.5264798998832703e-01</leafValues></_>
        <_>
          <internalNodes>
            0 -1 71 3.3541745506227016e-03</internalNodes>
          <leafValues>
            -1.9246809184551239e-01 6.7294585704803467e-01</leafValues></_>
        <_>
          <internalNodes>
            0 -1 62 -4.4900625944137573e-03</internalNodes>
          <leafValues>
            5.4690992832183838e-01 -2.3717322945594788e-01</leafValues></_>
        <_>
          <internalNodes>
            0 -1 2 7.4356883764266968e-02</internalNodes>
          <leafValues>
            -1.6703961789608002e-01 7.8845685720443726e-01</leafValues></_></weakClassifiers></_></stages>
  <features>
    <_>
      <rects>
        <_>
          0 4 10 15 -1.</_>
        <_>
          5 4 5 15 2.</_></rects>
      <tilted>0</tilted></_>
    <_>
      <rects>
        <_>
          0 10 6 3 -1.</_>
        <_>
          3 10 3 3 2.</_></rects>
      <tilted>0</tilted></_>
    <_>
      <rects>
        <_>
          1 2 6 12 -1.</_>
        <_>
          4 2 3 12 2.</_></rects>
      <tilted>0</tilted></_>
    <_>
      <rects>
        <_>
          2 2 4 9 -1.</_>
        <_>
          4 2 2 9 2.</_></rects>
      <tilted>0</tilted></_>
    <_>
      <rects>
        <_>
          2 2 16 2 -1.</_>
        <_>
          2 3 16 1 2.</_></rects>
      <tilted>0</tilted></_>
    <_>
      <rects>
        <_>
          2 6 4 3 -1.</_>
        <_>
          4 6 2 3 2.</_></rects>
      <tilted>0</tilted></_>
    <_>
      <rects>
        <_>
          2 12 10 6 -1.</_>
        <_>
          2 12 5 3 2.</_>
        <_>
          7 15 5 3 2.</_></rects>
      <tilted>0</tilted></_>
    <_>
      <rects>
        <_>
          2 14 6 3 -1.</_>
        <_>
          5 14 3 3 2.</_></rects>
      <tilted>0</tilted></_>
    <_>
      <rects>
        <_>
          3 8 6 3 -1.</_>
        <_>
          5 8 2 3 3.</_></rects>
      <tilted>0</tilted></_>
    <_>
      <rects>
        <_>
          3 8 6 6 -1.</_>
        <_>
          6 8 3 6 2.</_></rects>
      <tilted>0</tilted></_>
    <_>
      <rects>
        <_>
          3 9 2 2 -1.</_>
        <_>
          4 9 1 2 2.</_></rects>
      <tilted>0</tilted></_>
    <_>
      <rects>
        <_>
          4 0 7 2 -1.</_>
        <_>
          4 1 7 1 2.</_></rects>
      <tilted>0</tilted></_>
    <_>
      <rects>
        <_>
          4 5 6 3 -1.</_>
        <_>
          6 5 2 3 3.</_></rects>
      <tilted>0</tilted></_>
    <_>
      <rects>
        <_>
          4 5 13 6 -1.</_>
        <_>
          4 8 13 3 2.</_></rects>
      <tilted>0</tilted></_>
    <_>
      <rects>
        <_>
          5 2 10 8 -1.</_>
        <_>
          10 2 5 8 2.</_></rects>
      <tilted>0</tilted></_>
    <_>
      <rects>
        <_>
          5 4 10 5 -1.</_>
        <_>
          10 4 5 5 2.</_></rects>
      <tilted>0</tilted></_>
    <_>
      <rects>
        <_>
          5 4 9 6 -1.</_>
        <_>
          5 7 9 3 2.</_></rects>
      <tilted>0</tilted></_>
    <_>
      <rects>
        <_>
          5 4 10 15 -1.</_>
        <_>
          5 9 10 5 3.</_></rects>
      <tilted>0</tilted></_>
    <_>
      <rects>
        <_>
          5 5 2 2 -1.</_>
        <_>
          6 5 1 2 2.</_></rects>
      <tilted>0</tilted></_>
    <_>
      <rects>
        <_>
          5 6 8 3 -1.</_>
        <_>
          9 6 4 3 2.</_></rects>
      <tilted>0</tilted></_>
    <_>
      <rects>
        <_>
          5 7 9 3 -1.</_>
        <_>
          8 7 3 3 3.</_></rects>
      <tilted>0</tilted></_>
    <_>
      <rects>
        <_>
          5 8 6 2 -1.</_>
        <_>
          5 8 3 1 2.</_>
        <_>
          8 9 3 1 2.</_></rects>
      <tilted>0</tilted></_>
    <_>
      <rects>
        <_>
          6 0 7 4 -1.</_>
        <_>
          6 2 7 2 2.</_></rects>
      <tilted>0</tilted></_>
    <_>
      <rects>
        <_>
          6 0 10 2 -1.</_>
        <_>
          6 1 10 1 2.</_></rects>
      <tilted>0</tilted></_>
    <_>
      <rects>
        <_>
          6 1 2 4 -1.</_>
        <_>
          6 3 2 2 2.</_></rects>
      <tilted>0</tilted></_>
    <_>
      <rects>
        <_>
          6 1 6 8 -1.</_>
        <_>
          6 5 6 4 2.</_></rects>
      <tilted>0</tilted></_>
    <_>
      <rects>
        <_>
          6 3 5 8 -1.</_>
        <_>
          6 7 5 4 2.</_></rects>
      <tilted>0</tilted></_>
    <_>
      <rects>
        <_>
          6 4 8 5 -1.</_>
        <_>
          10 4 4 5 2.</_></rects>
      <tilted>0</tilted></_>
    <_>
      <rects>
        <_>
          6 7 9 3 -1.</_>
        <_>
          9 7 3 3 3.</_></rects>
      <tilted>0</tilted></_>
    <_>
      <rects>
        <_>
          6 7 10 3 -1.</_>
        <_>
          11 7 5 3 2.</_></rects>
      <tilted>0</tilted></_>
    <_>
      <rects>
        <_>
          6 10 7 8 -1.</_>
        <_>
          6 14 7 4 2.</_></rects>
      <tilted>0</tilted></_>
    <_>
      <rects>
        <_>
          6 15 9 3 -1.</_>
        <_>
          6 16 9 1 3.</_></rects>
      <tilted>0</tilted></_>
    <_>
      <rects>
        <_>
          7 1 1 4 -1.</_>
        <_>
          7 3 1 2 2.</_></rects>
      <tilted>0</tilted></_>
    <_>
      <rects>
        <_>
          7 2 6 6 -1.</_>
        <_>
          7 4 6 2 3.</_></rects>
      <tilted>0</tilted></_>
    <_>
      <rects>
        <_>
          7 2 6 10 -1.</_>
        <_>
          7 7 6 5 2.</_></rects>
      <tilted>0</tilted></_>
    <_>
      <rects>
        <_>
          7 3 6 8 -1.</_>
        <_>
          7 7 6 4 2.</_></rects>
      <tilted>0</tilted></_>
    <_>
      <rects>
        <_>
          7 5 6 2 -1.</_>
        <_>
          7 6 6 1 2.</_></rects>
      <tilted>0</tilted></_>
    <_>
      <rects>
        <_>
          7 6 8 3 -1.</_>
        <_>
          11 6 4 3 2.</_></rects>
      <tilted>0</tilted></_>
    <_>
      <rects>
        <_>
          7 13 5 4 -1.</_>
        <_>
          7 15 5 2 2.</_></rects>
      <tilted>0</tilted></_>
    <_>
      <rects>
        <_>
          7 14 7 6 -1.</_>
        <_>
          7 16 7 2 3.</_></rects>
      <tilted>0</tilted></_>
    <_>
      <rects>
        <_>
          8 2 4 8 -1.</_>
        <_>
          10 2 2 8 2.</_></rects>
      <tilted>0</tilted></_>
    <_>
      <rects>
        <_>
          8 2 6 16 -1.</_>
        <_>
          10 2 2 16 3.</_></rects>
      <tilted>0</tilted></_>
    <_>
      <rects>
        <_>
          8 2 4 8 -1.</_>
        <_>
          8 6 4 4 2.</_></rects>
      <tilted>0</tilted></_>
    <_>
      <rects>
        <_>
          8 4 5 4 -1.</_>
        <_>
          8 6 5 2 2.</_></rects>
      <tilted>0</tilted></_>
    <_>
      <rects>
        <_>
          8 6 3 3 -1.</_>
        <_>
          8 7 3 1 3.</_></rects>
      <tilted>0</tilted></_>
    <_>
      <rects>
        <_>
          8 7 2 3 -1.</_>
        <_>
          8 8 2 1 3.</_></rects>
      <tilted>0</tilted></_>
    <_>
      <rects>
        <_>
          8 13 3 4 -1.</_>
        <_>
          8 15 3 2 2.</_></rects>
      <tilted>0</tilted></_>
    <_>
      <rects>
        <_>
          8 14 4 6 -1.</_>
        <_>
          8 16 4 2 3.</_></rects>
      <tilted>0</tilted></_>
    <_>
      <rects>
        <_>
          8 14 6 6 -1.</_>
        <_>
          8 16 6 2 3.</_></rects>
      <tilted>0</tilted></_>
    <_>
      <rects>
        <_>
          8 17 2 1 -1.</_>
        <_>
          9 17 1 1 2.</_></rects>
      <tilted>0</tilted></_>
    <_>
      <rects>
        <_>
          9 0 2 3 -1.</_>
        <_>
          9 1 2 1 3.</_></rects>
      <tilted>0</tilted></_>
    <_>
      <rects>
        <_>
          9 1 3 3 -1.</_>
        <_>
          9 2 3 1 3.</_></rects>
      <tilted>0</tilted></_>
    <_>
      <rects>
        <_>
          9 2 4 6 -1.</_>
        <_>
          9 4 4 2 3.</_></rects>
      <tilted>0</tilted></_>
    <_>
      <rects>
        <_>
          9 4 4 9 -1.</_>
        <_>
          9 7 4 3 3.</_></rects>
      <tilted>0</tilted></_>
    <_>
      <rects>
        <_>
          9 7 3 3 -1.</_>
        <_>
          9 8 3 1 3.</_></rects>
      <tilted>0</tilted></_>
    <_>
      <rects>
        <_>
          9 8 1 6 -1.</_>
        <_>
          9 10 1 2 3.</_></rects>
      <tilted>0</tilted></_>
    <_>
      <rects>
        <_>
          9 11 3 6 -1.</_>
        <_>
          9 13 3 2 3.</_></rects>
      <tilted>0</tilted></_>
    <_>
      <rects>
        <_>
          9 14 4 6 -1.</_>
        <_>
          9 16 4 2 3.</_></rects>
      <tilted>0</tilted></_>
    <_>
      <rects>
        <_>
          9 15 4 3 -1.</_>
        <_>
          9 16 4 1 3.</_></rects>
      <tilted>0</tilted></_>
    <_>
      <rects>
        <_>
          9 17 2 1 -1.</_>
        <_>
          10 17 1 1 2.</_></rects>
      <tilted>0</tilted></_>
    <_>
      <rects>
        <_>
          9 17 3 1 -1.</_>
        <_>
          10 17 1 1 3.</_></rects>
      <tilted>0</tilted></_>
    <_>
      <rects>
        <_>
          9 17 7 2 -1.</_>
        <_>
          9 18 7 1 2.</_></rects>
      <tilted>0</tilted></_>
    <_>
      <rects>
        <_>
          10 0 3 6 -1.</_>
        <_>
          11 0 1 6 3.</_></rects>
      <tilted>0</tilted></_>
    <_>
      <rects>
        <_>
          10 1 1 3 -1.</_>
        <_>
          10 2 1 1 3.</_></rects>
      <tilted>0</tilted></_>
    <_>
      <rects>
        <_>
          10 2 3 6 -1.</_>
        <_>
          10 4 3 2 3.</_></rects>
      <tilted>0</tilted></_>
    <_>
      <rects>
        <_>
          10 6 2 12 -1.</_>
        <_>
          10 12 2 6 2.</_></rects>
      <tilted>0</tilted></_>
    <_>
      <rects>
        <_>
          10 12 8 6 -1.</_>
        <_>
          10 12 4 3 2.</_>
        <_>
          14 15 4 3 2.</_></rects>
      <tilted>0</tilted></_>
    <_>
      <rects>
        <_>
          10 14 10 5 -1.</_>
        <_>
          15 14 5 5 2.</_></rects>
      <tilted>0</tilted></_>
    <_>
      <rects>
        <_>
          10 15 1 3 -1.</_>
        <_>
          10 16 1 1 3.</_></rects>
      <tilted>0</tilted></_>
    <_>
      <rects>
        <_>
          10 17 3 1 -1.</_>
        <_>
          11 17 1 1 3.</_></rects>
      <tilted>0</tilted></_>
    <_>
      <rects>
        <_>
          11 9 6 7 -1.</_>
        <_>
          14 9 3 7 2.</_></rects>
      <tilted>0</tilted></_>
    <_>
      <rects>
        <_>
          14 4 2 4 -1.</_>
        <_>
          14 4 1 2 2.</_>
        <_>
          15 6 1 2 2.</_></rects>
      <tilted>0</tilted></_>
    <_>
      <rects>
        <_>
          16 6 2 2 -1.</_>
        <_>
          17 6 1 2 2.</_></rects>
      <tilted>0</tilted></_>
    <_>
      <rects>
        <_>
          16 7 3 2 -1.</_>
        <_>
          17 7 1 2 3.</_></rects>
      <tilted>0</tilted></_>
    <_>
      <rects>
        <_>
          16 9 4 5 -1.</_>
        <_>
          18 9 2 5 2.</_></rects>
      <tilted>0</tilted></_></features></cascade>
</opencv_storage>
