<?xml version="1.0"?>
<opencv_storage>
<cascade>
  <stageType>BOOST</stageType>
  <featureType>HAAR</featureType>
  <height>20</height>
  <width>20</width>
  <stageParams>
    <boostType>GAB</boostType>
    <minHitRate>9.9500000476837158e-01</minHitRate>
    <maxFalseAlarm>5.0000000000000000e-01</maxFalseAlarm>
    <weightTrimRate>9.4999999999999996e-01</weightTrimRate>
    <maxDepth>1</maxDepth>
    <maxWeakCount>100</maxWeakCount></stageParams>
  <featureParams>
    <maxCatCount>0</maxCatCount>
    <featSize>1</featSize>
    <mode>BASIC</mode></featureParams>
  <stageNum>10</stageNum>
  <stages>
    <!-- stage 0 -->
    <_>
      <maxWeakCount>11</maxWeakCount>
      <stageThreshold>-1.0678746700286865e+00</stageThreshold>
      <weakClassifiers>
        <_>
          <internalNodes>
            0 -1 34 4.4629657641053200e-03</internalNodes>
          <leafValues>
            -2.9317268729209900e-01 6.9953054189682007e-01</leafValues></_>
        <_>
          <internalNodes>
            0 -1 210 2.8073519933968782e-04</internalNodes>
          <leafValues>
            -4.2321279644966125e-01 5.1028096675872803e-01</leafValues></_>
        <_>
          <internalNodes>
            0 -1 80 -7.4562113732099533e-03</internalNodes>
          <leafValues>
            4.9568465352058411e-01 -2.8304013609886169e-01</leafValues></_>
        <_>
          <internalNodes>
            0 -1 164 1.6417454928159714e-02</internalNodes>
          <leafValues>
            1.9519609212875366e-01 -6.8708449602127075e-01</leafValues></_>
        <_>
          <internalNodes>
            0 -1 28 -7.3975488543510437e-02</internalNodes>
          <leafValues>
            5.3474551439285278e-01 -2.6028025150299072e-01</leafValues></_>
        <_>
          <internalNodes>
            0 -1 160 -7.0509025827050209e-03</internalNodes>
          <leafValues>
            4.3018987774848938e-01 -3.2393744587898254e-01</leafValues></_>
        <_>
          <internalNodes>
            0 -1 8 8.3795357495546341e-03</internalNodes>
          <leafValues>
            -2.0917177200317383e-01 4.2788410186767578e-01</leafValues></_>
        <_>
          <internalNodes>
            0 -1 209 -4.1682990267872810e-03</internalNodes>
          <leafValues>
            -8.2753086090087891e-01 1.0573914647102356e-01</leafValues></_>
        <_>
          <internalNodes>
            0 -1 125 1.3344087637960911e-03</internalNodes>
          <leafValues>
            -2.4774433672428131e-01 4.1549795866012573e-01</leafValues></_>
        <_>
          <internalNodes>
            0 -1 45 2.7275062166154385e-03</internalNodes>
          <leafValues>
            -2.5408533215522766e-01 4.2675906419754028e-01</leafValues></_>
        <_>
          <internalNodes>
            0 -1 54 -6.6160317510366440e-04</internalNodes>
          <leafValues>
            4.2165401577949524e-01 -2.1292278170585632e-01</leafValues></_></weakClassifiers></_>
    <!-- stage 1 -->
    <_>
      <maxWeakCount>13</maxWeakCount>
      <stageThreshold>-9.1123503446578979e-01</stageThreshold>
      <weakClassifiers>
        <_>
          <internalNodes>
            0 -1 204 1.5818316023796797e-03</internalNodes>
          <leafValues>
            -1.0752688348293304e-01 6.4393937587738037e-01</leafValues></_>
        <_>
          <internalNodes>
            0 -1 34 6.3390284776687622e-03</internalNodes>
          <leafValues>
            -3.8824883103370667e-01 4.0981554985046387e-01</leafValues></_>
        <_>
          <internalNodes>
            0 -1 87 -3.8396855816245079e-03</internalNodes>
          <leafValues>
            6.3319796323776245e-01 -1.7103715240955353e-01</leafValues></_>
        <_>
          <internalNodes>
            0 -1 53 8.5585657507181168e-03</internalNodes>
          <leafValues>
            -2.0517948269844055e-01 6.4290988445281982e-01</leafValues></_>
        <_>
          <internalNodes>
            0 -1 99 1.4344720169901848e-02</internalNodes>
          <leafValues>
            -1.7758083343505859e-01 5.7183229923248291e-01</leafValues></_>
        <_>
          <internalNodes>
            0 -1 69 -1.2779902666807175e-02</internalNodes>
          <leafValues>
            5.7945632934570312e-01 -1.8036821484565735e-01</leafValues></_>
        <_>
          <internalNodes>
            0 -1 119 -7.4752210639417171e-03</internalNodes>
          <leafValues>
            4.2380425333976746e-01 -2.5250551104545593e-01</leafValues></_>
        <_>
          <internalNodes>
            0 -1 219 -8.2246111705899239e-03</internalNodes>
          <leafValues>
            6.4789855480194092e-01 -1.5159159898757935e-01</leafValues></_>
        <_>
          <internalNodes>
            0 -1 6 -4.4339844025671482e-03</internalNodes>
          <leafValues>
            5.2261060476303101e-01 -1.8111738562583923e-01</leafValues></_>
        <_>
          <internalNodes>
            0 -1 50 1.2035969644784927e-02</internalNodes>
          <leafValues>
            -2.0691780745983124e-01 4.9546390771865845e-01</leafValues></_>
        <_>
          <internalNodes>
            0 -1 144 2.5806650519371033e-02</internalNodes>
          <leafValues>
            1.9159728288650513e-01 -6.0818558931350708e-01</leafValues></_>
        <_>
          <internalNodes>
            0 -1 124 -5.1067210733890533e-02</internalNodes>
          <leafValues>
            -6.9159340858459473e-01 1.0522360354661942e-01</leafValues></_>
        <_>
          <internalNodes>
            0 -1 26 7.3321774601936340e-02</internalNodes>
          <leafValues>
            8.9401535689830780e-02 -9.2196780443191528e-01</leafValues></_></weakClassifiers></_>
    <!-- stage 2 -->
    <_>
      <maxWeakCount>20</maxWeakCount>
      <stageThreshold>-1.0120390653610229e+00</stageThreshold>
      <weakClassifiers>
        <_>
          <internalNodes>
            0 -1 21 1.1466968804597855e-02</internalNodes>
          <leafValues>
            -1.0854503512382507e-01 5.4198473691940308e-01</leafValues></_>
        <_>
          <internalNodes>
            0 -1 208 9.0858945623040199e-04</internalNodes>
          <leafValues>
            -3.9353269338607788e-01 3.1306889653205872e-01</leafValues></_>
        <_>
          <internalNodes>
            0 -1 114 2.6879629585891962e-03</internalNodes>
          <leafValues>
            -3.1323647499084473e-01 3.1313595175743103e-01</leafValues></_>
        <_>
          <internalNodes>
            0 -1 137 -1.1082715354859829e-03</internalNodes>
          <leafValues>
            3.2271549105644226e-01 -2.8629130125045776e-01</leafValues></_>
        <_>
          <internalNodes>
            0 -1 2 -2.1769184619188309e-02</internalNodes>
          <leafValues>
            4.4674098491668701e-01 -1.9657826423645020e-01</leafValues></_>
        <_>
          <internalNodes>
            0 -1 65 3.0864623840898275e-03</internalNodes>
          <leafValues>
            -2.8986701369285583e-01 3.2733038067817688e-01</leafValues></_>
        <_>
          <internalNodes>
            0 -1 111 -5.5224066600203514e-03</internalNodes>
          <leafValues>
            4.2407345771789551e-01 -2.0296944677829742e-01</leafValues></_>
        <_>
          <internalNodes>
            0 -1 161 4.1612125933170319e-02</internalNodes>
          <leafValues>
            1.0770768672227859e-01 -9.1059434413909912e-01</leafValues></_>
        <_>
          <internalNodes>
            0 -1 214 -8.1069320440292358e-03</internalNodes>
          <leafValues>
            4.6947255730628967e-01 -1.9518499076366425e-01</leafValues></_>
        <_>
          <internalNodes>
            0 -1 149 2.6243017055094242e-04</internalNodes>
          <leafValues>
            -2.4015215039253235e-01 3.6901524662971497e-01</leafValues></_>
        <_>
          <internalNodes>
            0 -1 152 1.5073275193572044e-02</internalNodes>
          <leafValues>
            1.0205674916505814e-01 -7.3422992229461670e-01</leafValues></_>
        <_>
          <internalNodes>
            0 -1 183 1.3350827619433403e-02</internalNodes>
          <leafValues>
            1.3090409338474274e-01 -5.4637020826339722e-01</leafValues></_>
        <_>
          <internalNodes>
            0 -1 71 -1.1099824681878090e-02</internalNodes>
          <leafValues>
            6.3158756494522095e-01 -1.2166856229305267e-01</leafValues></_>
        <_>
          <internalNodes>
            0 -1 88 2.5848443619906902e-03</internalNodes>
          <leafValues>
            -1.6072364151477814e-01 4.3779608607292175e-01</leafValues></_>
        <_>
          <internalNodes>
            0 -1 157 -7.1280961856245995e-04</internalNodes>
          <leafValues>
            3.1053116917610168e-01 -2.1367019414901733e-01</leafValues></_>
        <_>
          <internalNodes>
            0 -1 142 6.2096831388771534e-03</internalNodes>
          <leafValues>
            1.1953083425760269e-01 -5.8516609668731689e-01</leafValues></_>
        <_>
          <internalNodes>
            0 -1 169 -2.2296691313385963e-02</internalNodes>
          <leafValues>
            -6.3406747579574585e-01 1.2220317870378494e-01</leafValues></_>
        <_>
          <internalNodes>
            0 -1 94 -3.7740098778158426e-03</internalNodes>
          <leafValues>
            4.5197540521621704e-01 -1.8074280023574829e-01</leafValues></_>
        <_>
          <internalNodes>
            0 -1 91 -1.0398292914032936e-02</internalNodes>
          <leafValues>
            5.5289167165756226e-01 -1.2601599097251892e-01</leafValues></_>
        <_>
          <internalNodes>
            0 -1 36 -1.2883505225181580e-01</internalNodes>
          <leafValues>
            -6.7761468887329102e-01 1.2216175347566605e-01</leafValues></_></weakClassifiers></_>
    <!-- stage 3 -->
    <_>
      <maxWeakCount>17</maxWeakCount>
      <stageThreshold>-5.7576388120651245e-01</stageThreshold>
      <weakClassifiers>
        <_>
          <internalNodes>
            0 -1 190 4.7335773706436157e-03</internalNodes>
          <leafValues>
            -1.8281536176800728e-03 5.6164383888244629e-01</leafValues></_>
        <_>
          <internalNodes>
            0 -1 108 1.9085764884948730e-02</internalNodes>
          <leafValues>
            -1.5821239352226257e-01 5.2906936407089233e-01</leafValues></_>
        <_>
          <internalNodes>
            0 -1 78 -1.1090103536844254e-02</internalNodes>
          <leafValues>
            3.4389096498489380e-01 -2.8179609775543213e-01</leafValues></_>
        <_>
          <internalNodes>
            0 -1 44 3.9231004193425179e-03</internalNodes>
          <leafValues>
            -2.7730724215507507e-01 2.8312516212463379e-01</leafValues></_>
        <_>
          <internalNodes>
            0 -1 16 -7.2454097680747509e-03</internalNodes>
          <leafValues>
            3.2201403379440308e-01 -2.1424880623817444e-01</leafValues></_>
        <_>
          <internalNodes>
            0 -1 176 2.5531837716698647e-02</internalNodes>
          <leafValues>
            9.0957872569561005e-02 -8.1665295362472534e-01</leafValues></_>
        <_>
          <internalNodes>
            0 -1 150 2.1894252859055996e-03</internalNodes>
          <leafValues>
            -2.4007265269756317e-01 3.0718734860420227e-01</leafValues></_>
        <_>
          <internalNodes>
            0 -1 207 4.1239059646613896e-04</internalNodes>
          <leafValues>
            -3.6180895566940308e-01 1.9473896920681000e-01</leafValues></_>
        <_>
          <internalNodes>
            0 -1 52 3.4870109520852566e-03</internalNodes>
          <leafValues>
            -1.6990678012371063e-01 3.9054930210113525e-01</leafValues></_>
        <_>
          <internalNodes>
            0 -1 151 -1.8825281411409378e-02</internalNodes>
          <leafValues>
            -7.5357902050018311e-01 9.8222739994525909e-02</leafValues></_>
        <_>
          <internalNodes>
            0 -1 41 -9.0107060968875885e-03</internalNodes>
          <leafValues>
            3.9941629767417908e-01 -1.7599369585514069e-01</leafValues></_>
        <_>
          <internalNodes>
            0 -1 174 -9.7169606015086174e-03</internalNodes>
          <leafValues>
            -5.6341671943664551e-01 1.1379764974117279e-01</leafValues></_>
        <_>
          <internalNodes>
            0 -1 182 -5.9695862233638763e-02</internalNodes>
          <leafValues>
            3.3451285958290100e-01 -1.9731469452381134e-01</leafValues></_>
        <_>
          <internalNodes>
            0 -1 218 -1.1804975569248199e-02</internalNodes>
          <leafValues>
            6.8640041351318359e-01 -1.0927059501409531e-01</leafValues></_>
        <_>
          <internalNodes>
            0 -1 131 6.4178393222391605e-04</internalNodes>
          <leafValues>
            -3.0134654045104980e-01 2.2222872078418732e-01</leafValues></_>
        <_>
          <internalNodes>
            0 -1 93 -4.1652195155620575e-02</internalNodes>
          <leafValues>
            -9.6152341365814209e-01 5.6339658796787262e-02</leafValues></_>
        <_>
          <internalNodes>
            0 -1 166 -3.2571997493505478e-02</internalNodes>
          <leafValues>
            -7.1959149837493896e-01 6.4047239720821381e-02</leafValues></_></weakClassifiers></_>
    <!-- stage 4 -->
    <_>
      <maxWeakCount>28</maxWeakCount>
      <stageThreshold>-8.5680228471755981e-01</stageThreshold>
      <weakClassifiers>
        <_>
          <internalNodes>
            0 -1 21 5.3188474848866463e-03</internalNodes>
          <leafValues>
            -1.7073170840740204e-01 4.9510762095451355e-01</leafValues></_>
        <_>
          <internalNodes>
            0 -1 139 -8.0086607486009598e-03</internalNodes>
          <leafValues>
            3.2787948846817017e-01 -2.2670689225196838e-01</leafValues></_>
        <_>
          <internalNodes>
            0 -1 55 -1.5930075896903872e-03</internalNodes>
          <leafValues>
            3.3564010262489319e-01 -2.0794235169887543e-01</leafValues></_>
        <_>
          <internalNodes>
            0 -1 132 -5.3426273167133331e-02</internalNodes>
          <leafValues>
            -5.3101491928100586e-01 1.2449070066213608e-01</leafValues></_>
        <_>
          <internalNodes>
            0 -1 19 6.8396944552659988e-03</internalNodes>
          <leafValues>
            -1.5044666826725006e-01 4.0842491388320923e-01</leafValues></_>
        <_>
          <internalNodes>
            0 -1 17 -1.3890221714973450e-01</internalNodes>
          <leafValues>
            3.7710958719253540e-01 -1.9546742737293243e-01</leafValues></_>
        <_>
          <internalNodes>
            0 -1 129 3.6727823317050934e-04</internalNodes>
          <leafValues>
            -2.3860219120979309e-01 2.6297596096992493e-01</leafValues></_>
        <_>
          <internalNodes>
            0 -1 4 -5.4324828088283539e-03</internalNodes>
          <leafValues>
            2.9044678807258606e-01 -2.1425342559814453e-01</leafValues></_>
        <_>
          <internalNodes>
            0 -1 71 -2.0501416176557541e-02</internalNodes>
          <leafValues>
            8.3773881196975708e-01 -6.7755185067653656e-02</leafValues></_>
        <_>
          <internalNodes>
            0 -1 104 -1.3468834804370999e-03</internalNodes>
          <leafValues>
            2.8146860003471375e-01 -1.8720495700836182e-01</leafValues></_>
        <_>
          <internalNodes>
            0 -1 72 3.1563729047775269e-02</internalNodes>
          <leafValues>
            -7.3649048805236816e-02 7.1902835369110107e-01</leafValues></_>
        <_>
          <internalNodes>
            0 -1 189 2.8363188728690147e-02</internalNodes>
          <leafValues>
            7.6220378279685974e-02 -8.3980900049209595e-01</leafValues></_>
        <_>
          <internalNodes>
            0 -1 112 6.5685906447470188e-03</internalNodes>
          <leafValues>
            -1.3164107501506805e-01 4.5674934983253479e-01</leafValues></_>
        <_>
          <internalNodes>
            0 -1 175 1.3431664556264877e-02</internalNodes>
          <leafValues>
            9.6923284232616425e-02 -6.7814141511917114e-01</leafValues></_>
        <_>
          <internalNodes>
            0 -1 81 7.5706942006945610e-03</internalNodes>
          <leafValues>
            7.7785164117813110e-02 -5.9800291061401367e-01</leafValues></_>
        <_>
          <internalNodes>
            0 -1 200 5.6422612397000194e-04</internalNodes>
          <leafValues>
            -1.9825722277164459e-01 2.8160050511360168e-01</leafValues></_>
        <_>
          <internalNodes>
            0 -1 27 -5.2603469230234623e-03</internalNodes>
          <leafValues>
            4.2356291413307190e-01 -1.3691584765911102e-01</leafValues></_>
        <_>
          <internalNodes>
            0 -1 64 -1.1015539988875389e-02</internalNodes>
          <leafValues>
            5.5034130811691284e-01 -9.4426542520523071e-02</leafValues></_>
        <_>
          <internalNodes>
            0 -1 198 2.0827602595090866e-02</internalNodes>
          <leafValues>
            7.5178638100624084e-02 -8.6657863855361938e-01</leafValues></_>
        <_>
          <internalNodes>
            0 -1 61 -1.4861121308058500e-03</internalNodes>
          <leafValues>
            2.4784642457962036e-01 -2.1198447048664093e-01</leafValues></_>
        <_>
          <internalNodes>
            0 -1 75 8.5967518389225006e-03</internalNodes>
          <leafValues>
            9.7197718918323517e-02 -5.5020004510879517e-01</leafValues></_>
        <_>
          <internalNodes>
            0 -1 7 -8.0037144944071770e-03</internalNodes>
          <leafValues>
            3.1158617138862610e-01 -1.6770564019680023e-01</leafValues></_>
        <_>
          <internalNodes>
            0 -1 133 -1.5890140086412430e-02</internalNodes>
          <leafValues>
            -5.3544861078262329e-01 1.0571918636560440e-01</leafValues></_>
        <_>
          <internalNodes>
            0 -1 191 -3.3343659015372396e-04</internalNodes>
          <leafValues>
            2.4853216111660004e-01 -2.4710977077484131e-01</leafValues></_>
        <_>
          <internalNodes>
            0 -1 186 5.6473696604371071e-03</internalNodes>
          <leafValues>
            6.6701419651508331e-02 -8.7695050239562988e-01</leafValues></_>
        <_>
          <internalNodes>
            0 -1 23 3.8632031064480543e-03</internalNodes>
          <leafValues>
            -3.0838558077812195e-01 1.5125490725040436e-01</leafValues></_>
        <_>
          <internalNodes>
            0 -1 10 7.3414333164691925e-02</internalNodes>
          <leafValues>
            9.7145363688468933e-02 -6.3946944475173950e-01</leafValues></_>
        <_>
          <internalNodes>
            0 -1 58 3.1423410400748253e-03</internalNodes>
          <leafValues>
            5.0765622407197952e-02 -8.0350381135940552e-01</leafValues></_></weakClassifiers></_>
    <!-- stage 5 -->
    <_>
      <maxWeakCount>26</maxWeakCount>
      <stageThreshold>-7.0196771621704102e-01</stageThreshold>
      <weakClassifiers>
        <_>
          <internalNodes>
            0 -1 140 -4.5137908309698105e-03</internalNodes>
          <leafValues>
            5.0566893815994263e-01 8.5470089688897133e-03</leafValues></_>
        <_>
          <internalNodes>
            0 -1 34 1.3435214757919312e-02</internalNodes>
          <leafValues>
            -2.0635536313056946e-01 3.0810117721557617e-01</leafValues></_>
        <_>
          <internalNodes>
            0 -1 62 5.7992964982986450e-02</internalNodes>
          <leafValues>
            -1.4062014222145081e-01 4.5593908429145813e-01</leafValues></_>
        <_>
          <internalNodes>
            0 -1 11 -2.1550325676798820e-02</internalNodes>
          <leafValues>
            -8.0219566822052002e-01 3.6114193499088287e-02</leafValues></_>
        <_>
          <internalNodes>
            0 -1 86 -2.4585748091340065e-02</internalNodes>
          <leafValues>
            6.1020171642303467e-01 -9.3063212931156158e-02</leafValues></_>
        <_>
          <internalNodes>
            0 -1 0 -1.0335978120565414e-01</internalNodes>
          <leafValues>
            3.3437192440032959e-01 -1.5924620628356934e-01</leafValues></_>
        <_>
          <internalNodes>
            0 -1 38 -3.3461190760135651e-02</internalNodes>
          <leafValues>
            5.6509214639663696e-01 -1.2608011066913605e-01</leafValues></_>
        <_>
          <internalNodes>
            0 -1 159 -1.1270788963884115e-03</internalNodes>
          <leafValues>
            -3.7891504168510437e-01 1.5738414227962494e-01</leafValues></_>
        <_>
          <internalNodes>
            0 -1 211 7.9917926341295242e-03</internalNodes>
          <leafValues>
            6.9625750184059143e-02 -7.9736864566802979e-01</leafValues></_>
        <_>
          <internalNodes>
            0 -1 79 -1.1676164343953133e-02</internalNodes>
          <leafValues>
            1.9664585590362549e-01 -2.7154722809791565e-01</leafValues></_>
        <_>
          <internalNodes>
            0 -1 60 1.2728457804769278e-03</internalNodes>
          <leafValues>
            -1.2706892192363739e-01 4.7084328532218933e-01</leafValues></_>
        <_>
          <internalNodes>
            0 -1 158 1.2873958796262741e-02</internalNodes>
          <leafValues>
            1.3333107531070709e-01 -4.0850704908370972e-01</leafValues></_>
        <_>
          <internalNodes>
            0 -1 90 -2.5108088739216328e-03</internalNodes>
          <leafValues>
            4.6450340747833252e-01 -1.1863186955451965e-01</leafValues></_>
        <_>
          <internalNodes>
            0 -1 192 -1.3724463991820812e-02</internalNodes>
          <leafValues>
            -5.4715007543563843e-01 9.9320136010646820e-02</leafValues></_>
        <_>
          <internalNodes>
            0 -1 51 -3.1569153070449829e-03</internalNodes>
          <leafValues>
            3.9197945594787598e-01 -1.3204449415206909e-01</leafValues></_>
        <_>
          <internalNodes>
            0 -1 212 2.4220162595156580e-04</internalNodes>
          <leafValues>
            -2.7006337046623230e-01 2.0252668857574463e-01</leafValues></_>
        <_>
          <internalNodes>
            0 -1 194 -2.7788311243057251e-02</internalNodes>
          <leafValues>
            -7.2418081760406494e-01 6.7089065909385681e-02</leafValues></_>
        <_>
          <internalNodes>
            0 -1 40 -1.8474116921424866e-02</internalNodes>
          <leafValues>
            3.9466404914855957e-01 -1.3919503986835480e-01</leafValues></_>
        <_>
          <internalNodes>
            0 -1 148 9.6756126731634140e-03</internalNodes>
          <leafValues>
            6.9914557039737701e-02 -8.7509465217590332e-01</leafValues></_>
        <_>
          <internalNodes>
            0 -1 63 -1.8243882805109024e-03</internalNodes>
          <leafValues>
            -5.1941424608230591e-01 8.1715375185012817e-02</leafValues></_>
        <_>
          <internalNodes>
            0 -1 179 -4.5796661288477480e-04</internalNodes>
          <leafValues>
            2.8771907091140747e-01 -1.7862847447395325e-01</leafValues></_>
        <_>
          <internalNodes>
            0 -1 156 2.3562405258417130e-03</internalNodes>
          <leafValues>
            -1.3492356240749359e-01 3.6843296885490417e-01</leafValues></_>
        <_>
          <internalNodes>
            0 -1 120 -1.8921043956652284e-03</internalNodes>
          <leafValues>
            3.5819590091705322e-01 -1.5631774067878723e-01</leafValues></_>
        <_>
          <internalNodes>
            0 -1 43 4.6334429644048214e-03</internalNodes>
          <leafValues>
            6.2002964317798615e-02 -7.4960619211196899e-01</leafValues></_>
        <_>
          <internalNodes>
            0 -1 122 3.7244863342493773e-03</internalNodes>
          <leafValues>
            -1.3995125889778137e-01 3.4486195445060730e-01</leafValues></_>
        <_>
          <internalNodes>
            0 -1 1 -1.2229019775986671e-02</internalNodes>
          <leafValues>
            3.4781292080879211e-01 -1.5050967037677765e-01</leafValues></_></weakClassifiers></_>
    <!-- stage 6 -->
    <_>
      <maxWeakCount>28</maxWeakCount>
      <stageThreshold>-7.9250353574752808e-01</stageThreshold>
      <weakClassifiers>
        <_>
          <internalNodes>
            0 -1 203 2.4748863652348518e-03</internalNodes>
          <leafValues>
            2.8355387970805168e-02 5.2984166145324707e-01</leafValues></_>
        <_>
          <internalNodes>
            0 -1 217 -9.1139711439609528e-03</internalNodes>
          <leafValues>
            5.1702159643173218e-01 -1.0384728759527206e-01</leafValues></_>
        <_>
          <internalNodes>
            0 -1 25 -1.1680778115987778e-02</internalNodes>
          <leafValues>
            2.3833896219730377e-01 -2.8546082973480225e-01</leafValues></_>
        <_>
          <internalNodes>
            0 -1 118 1.2639353051781654e-02</internalNodes>
          <leafValues>
            -1.8095289170742035e-01 3.6128759384155273e-01</leafValues></_>
        <_>
          <internalNodes>
            0 -1 178 -7.3730312287807465e-03</internalNodes>
          <leafValues>
            -5.4430770874023438e-01 9.7233988344669342e-02</leafValues></_>
        <_>
          <internalNodes>
            0 -1 39 -5.4802239174023271e-04</internalNodes>
          <leafValues>
            2.9826271533966064e-01 -1.7692689597606659e-01</leafValues></_>
        <_>
          <internalNodes>
            0 -1 24 4.4508486986160278e-02</internalNodes>
          <leafValues>
            1.1424750834703445e-01 -5.3280246257781982e-01</leafValues></_>
        <_>
          <internalNodes>
            0 -1 77 -2.4084497243165970e-02</internalNodes>
          <leafValues>
            6.0322970151901245e-01 -1.0608058422803879e-01</leafValues></_>
        <_>
          <internalNodes>
            0 -1 95 2.4272087961435318e-02</internalNodes>
          <leafValues>
            -1.1248810589313507e-01 4.4154831767082214e-01</leafValues></_>
        <_>
          <internalNodes>
            0 -1 146 4.7006300883367658e-04</internalNodes>
          <leafValues>
            -1.9267310202121735e-01 2.5844049453735352e-01</leafValues></_>
        <_>
          <internalNodes>
            0 -1 5 -3.9107049815356731e-03</internalNodes>
          <leafValues>
            3.4839016199111938e-01 -1.5279161930084229e-01</leafValues></_>
        <_>
          <internalNodes>
            0 -1 135 -1.7523011192679405e-03</internalNodes>
          <leafValues>
            2.8226232528686523e-01 -1.6392309963703156e-01</leafValues></_>
        <_>
          <internalNodes>
            0 -1 167 -5.0641025882214308e-04</internalNodes>
          <leafValues>
            2.8862300515174866e-01 -1.6475684940814972e-01</leafValues></_>
        <_>
          <internalNodes>
            0 -1 196 -1.8462836742401123e-02</internalNodes>
          <leafValues>
            -8.4440654516220093e-01 5.5418308824300766e-02</leafValues></_>
        <_>
          <internalNodes>
            0 -1 202 3.8212194340303540e-04</internalNodes>
          <leafValues>
            -2.4120888113975525e-01 1.8141444027423859e-01</leafValues></_>
        <_>
          <internalNodes>
            0 -1 136 -3.8257040083408356e-02</internalNodes>
          <leafValues>
            -8.7999904155731201e-01 5.9467550367116928e-02</leafValues></_>
        <_>
          <internalNodes>
            0 -1 76 6.8347919732332230e-03</internalNodes>
          <leafValues>
            -1.4567790925502777e-01 4.1400042176246643e-01</leafValues></_>
        <_>
          <internalNodes>
            0 -1 22 -2.2138983476907015e-03</internalNodes>
          <leafValues>
            -4.4176605343818665e-01 1.2656329572200775e-01</leafValues></_>
        <_>
          <internalNodes>
            0 -1 29 2.6040762662887573e-02</internalNodes>
          <leafValues>
            -8.6974285542964935e-02 6.0193228721618652e-01</leafValues></_>
        <_>
          <internalNodes>
            0 -1 163 4.5964103192090988e-03</internalNodes>
          <leafValues>
            7.0776753127574921e-02 -7.6564329862594604e-01</leafValues></_>
        <_>
          <internalNodes>
            0 -1 215 -9.3755321577191353e-03</internalNodes>
          <leafValues>
            4.7981968522071838e-01 -1.1606312543153763e-01</leafValues></_>
        <_>
          <internalNodes>
            0 -1 153 1.0643761605024338e-02</internalNodes>
          <leafValues>
            8.4447100758552551e-02 -6.5910154581069946e-01</leafValues></_>
        <_>
          <internalNodes>
            0 -1 47 5.5424183607101440e-02</internalNodes>
          <leafValues>
            5.9079982340335846e-02 -7.6704406738281250e-01</leafValues></_>
        <_>
          <internalNodes>
            0 -1 98 3.8622391875833273e-03</internalNodes>
          <leafValues>
            -2.1399681270122528e-01 2.2434726357460022e-01</leafValues></_>
        <_>
          <internalNodes>
            0 -1 128 -8.1997551023960114e-03</internalNodes>
          <leafValues>
            3.6033448576927185e-01 -1.2970265746116638e-01</leafValues></_>
        <_>
          <internalNodes>
            0 -1 53 9.2304628342390060e-03</internalNodes>
          <leafValues>
            -1.2111348658800125e-01 4.0397056937217712e-01</leafValues></_>
        <_>
          <internalNodes>
            0 -1 66 -1.4297228306531906e-02</internalNodes>
          <leafValues>
            4.3097272515296936e-01 -1.2109340727329254e-01</leafValues></_>
        <_>
          <internalNodes>
            0 -1 223 3.9878399111330509e-03</internalNodes>
          <leafValues>
            -1.5560701489448547e-01 3.4494242072105408e-01</leafValues></_></weakClassifiers></_>
    <!-- stage 7 -->
    <_>
      <maxWeakCount>26</maxWeakCount>
      <stageThreshold>-6.4732038974761963e-01</stageThreshold>
      <weakClassifiers>
        <_>
          <internalNodes>
            0 -1 143 2.2345237433910370e-02</internalNodes>
          <leafValues>
            4.0242916345596313e-01 -4.0869563817977905e-01</leafValues></_>
        <_>
          <internalNodes>
            0 -1 168 -5.0466964021325111e-03</internalNodes>
          <leafValues>
            -4.9038046598434448e-01 1.8294771015644073e-01</leafValues></_>
        <_>
          <internalNodes>
            0 -1 109 -8.0469429492950439e-02</internalNodes>
          <leafValues>
            5.2282530069351196e-01 -1.5070784091949463e-01</leafValues></_>
        <_>
          <internalNodes>
            0 -1 221 -4.9082790501415730e-03</internalNodes>
          <leafValues>
            3.6020261049270630e-01 -1.8899305164813995e-01</leafValues></_>
        <_>
          <internalNodes>
            0 -1 9 -1.3581309467554092e-02</internalNodes>
          <leafValues>
            3.1159532070159912e-01 -1.9596099853515625e-01</leafValues></_>
        <_>
          <internalNodes>
            0 -1 71 -1.0431075468659401e-02</internalNodes>
          <leafValues>
            4.6690440177917480e-01 -1.4279572665691376e-01</leafValues></_>
        <_>
          <internalNodes>
            0 -1 126 8.4261763840913773e-03</internalNodes>
          <leafValues>
            -2.0589444041252136e-01 3.0166548490524292e-01</leafValues></_>
        <_>
          <internalNodes>
            0 -1 3 1.5554672107100487e-02</internalNodes>
          <leafValues>
            -1.5881828963756561e-01 3.5146155953407288e-01</leafValues></_>
        <_>
          <internalNodes>
            0 -1 207 1.3778036227449775e-03</internalNodes>
          <leafValues>
            -2.5166696310043335e-01 2.0339100062847137e-01</leafValues></_>
        <_>
          <internalNodes>
            0 -1 105 -3.3830588217824697e-03</internalNodes>
          <leafValues>
            3.5430139303207397e-01 -1.5771345794200897e-01</leafValues></_>
        <_>
          <internalNodes>
            0 -1 59 -1.1708012316375971e-03</internalNodes>
          <leafValues>
            2.4026644229888916e-01 -2.0388466119766235e-01</leafValues></_>
        <_>
          <internalNodes>
            0 -1 37 -1.1445233598351479e-02</internalNodes>
          <leafValues>
            -8.2426321506500244e-01 6.5865568816661835e-02</leafValues></_>
        <_>
          <internalNodes>
            0 -1 35 -9.4445839524269104e-02</internalNodes>
          <leafValues>
            -6.2263923883438110e-01 7.0221930742263794e-02</leafValues></_>
        <_>
          <internalNodes>
            0 -1 113 -8.4942188113927841e-03</internalNodes>
          <leafValues>
            3.9036351442337036e-01 -1.4633047580718994e-01</leafValues></_>
        <_>
          <internalNodes>
            0 -1 92 -2.9375834390521049e-02</internalNodes>
          <leafValues>
            4.8155325651168823e-01 -1.2702044844627380e-01</leafValues></_>
        <_>
          <internalNodes>
            0 -1 115 -2.3889967706054449e-03</internalNodes>
          <leafValues>
            2.1242779493331909e-01 -2.5315421819686890e-01</leafValues></_>
        <_>
          <internalNodes>
            0 -1 116 -2.8917837888002396e-02</internalNodes>
          <leafValues>
            -5.4875022172927856e-01 8.7041869759559631e-02</leafValues></_>
        <_>
          <internalNodes>
            0 -1 138 1.8200032413005829e-02</internalNodes>
          <leafValues>
            7.7525332570075989e-02 -5.5717897415161133e-01</leafValues></_>
        <_>
          <internalNodes>
            0 -1 184 1.9855450838804245e-02</internalNodes>
          <leafValues>
            5.1346290856599808e-02 -8.1814980506896973e-01</leafValues></_>
        <_>
          <internalNodes>
            0 -1 110 -1.1458646040409803e-03</internalNodes>
          <leafValues>
            2.8734400868415833e-01 -1.7694096267223358e-01</leafValues></_>
        <_>
          <internalNodes>
            0 -1 173 -5.0789453089237213e-03</internalNodes>
          <leafValues>
            3.6637210845947266e-01 -1.2566062808036804e-01</leafValues></_>
        <_>
          <internalNodes>
            0 -1 180 1.2225210666656494e-02</internalNodes>
          <leafValues>
            -1.1569071561098099e-01 4.1869205236434937e-01</leafValues></_>
        <_>
          <internalNodes>
            0 -1 177 -4.4883973896503448e-03</internalNodes>
          <leafValues>
            -4.3460083007812500e-01 1.1220253258943558e-01</leafValues></_>
        <_>
          <internalNodes>
            0 -1 170 8.3163665840402246e-04</internalNodes>
          <leafValues>
            -1.4715757966041565e-01 3.6576133966445923e-01</leafValues></_>
        <_>
          <internalNodes>
            0 -1 74 1.7741706222295761e-02</internalNodes>
          <leafValues>
            -6.4945921301841736e-02 6.8102979660034180e-01</leafValues></_>
        <_>
          <internalNodes>
            0 -1 30 -4.3415902182459831e-03</internalNodes>
          <leafValues>
            -8.8355278968811035e-01 6.2584333121776581e-02</leafValues></_></weakClassifiers></_>
    <!-- stage 8 -->
    <_>
      <maxWeakCount>33</maxWeakCount>
      <stageThreshold>-7.1594709157943726e-01</stageThreshold>
      <weakClassifiers>
        <_>
          <internalNodes>
            0 -1 73 -4.7695286571979523e-02</internalNodes>
          <leafValues>
            -7.1428573131561279e-01 3.7867078185081482e-01</leafValues></_>
        <_>
          <internalNodes>
            0 -1 68 2.0960289984941483e-02</internalNodes>
          <leafValues>
            -5.5944461375474930e-02 6.9532698392868042e-01</leafValues></_>
        <_>
          <internalNodes>
            0 -1 206 8.0750469351187348e-05</internalNodes>
          <leafValues>
            -3.7146270275115967e-01 1.3424649834632874e-01</leafValues></_>
        <_>
          <internalNodes>
            0 -1 171 -2.3594813421368599e-02</internalNodes>
          <leafValues>
            2.3022483289241791e-01 -2.2848311066627502e-01</leafValues></_>
        <_>
          <internalNodes>
            0 -1 32 -2.9043122194707394e-03</internalNodes>
          <leafValues>
            2.0775790512561798e-01 -2.4207797646522522e-01</leafValues></_>
        <_>
          <internalNodes>
            0 -1 145 2.9679838567972183e-02</internalNodes>
          <leafValues>
            1.1638109385967255e-01 -5.2509742975234985e-01</leafValues></_>
        <_>
          <internalNodes>
            0 -1 20 7.7111935243010521e-03</internalNodes>
          <leafValues>
            -1.7789670825004578e-01 2.7008417248725891e-01</leafValues></_>
        <_>
          <internalNodes>
            0 -1 70 3.2297605648636818e-03</internalNodes>
          <leafValues>
            -1.6102789342403412e-01 3.4875470399856567e-01</leafValues></_>
        <_>
          <internalNodes>
            0 -1 67 -4.2764469981193542e-03</internalNodes>
          <leafValues>
            3.5051417350769043e-01 -1.4777106046676636e-01</leafValues></_>
        <_>
          <internalNodes>
            0 -1 197 -3.5291113890707493e-03</internalNodes>
          <leafValues>
            -5.2021169662475586e-01 1.0544281452894211e-01</leafValues></_>
        <_>
          <internalNodes>
            0 -1 101 4.8157211393117905e-02</internalNodes>
          <leafValues>
            -9.6337303519248962e-02 5.2877199649810791e-01</leafValues></_>
        <_>
          <internalNodes>
            0 -1 130 -2.4586645886301994e-03</internalNodes>
          <leafValues>
            -4.3717962503433228e-01 1.1421895027160645e-01</leafValues></_>
        <_>
          <internalNodes>
            0 -1 199 8.8711362332105637e-03</internalNodes>
          <leafValues>
            5.8422066271305084e-02 -7.5702685117721558e-01</leafValues></_>
        <_>
          <internalNodes>
            0 -1 31 -1.4403963088989258e-01</internalNodes>
          <leafValues>
            -5.7599037885665894e-01 8.1630252301692963e-02</leafValues></_>
        <_>
          <internalNodes>
            0 -1 117 -4.1671993676573038e-04</internalNodes>
          <leafValues>
            1.9537992775440216e-01 -2.3176562786102295e-01</leafValues></_>
        <_>
          <internalNodes>
            0 -1 134 -4.6869227662682533e-04</internalNodes>
          <leafValues>
            -3.5375827550888062e-01 1.2109913676977158e-01</leafValues></_>
        <_>
          <internalNodes>
            0 -1 84 -3.4639355726540089e-03</internalNodes>
          <leafValues>
            3.0664226412773132e-01 -1.4580611884593964e-01</leafValues></_>
        <_>
          <internalNodes>
            0 -1 165 6.7498246207833290e-03</internalNodes>
          <leafValues>
            1.1262724548578262e-01 -4.1365945339202881e-01</leafValues></_>
        <_>
          <internalNodes>
            0 -1 13 -1.0550081729888916e-02</internalNodes>
          <leafValues>
            3.7845528125762939e-01 -1.3127334415912628e-01</leafValues></_>
        <_>
          <internalNodes>
            0 -1 224 -3.2481937669217587e-03</internalNodes>
          <leafValues>
            -6.1337798833847046e-01 8.3480454981327057e-02</leafValues></_>
        <_>
          <internalNodes>
            0 -1 201 5.7753012515604496e-04</internalNodes>
          <leafValues>
            -1.7521727085113525e-01 2.9528450965881348e-01</leafValues></_>
        <_>
          <internalNodes>
            0 -1 213 -2.1431929781101644e-04</internalNodes>
          <leafValues>
            -2.6283001899719238e-01 1.6001145541667938e-01</leafValues></_>
        <_>
          <internalNodes>
            0 -1 106 6.0510926414281130e-04</internalNodes>
          <leafValues>
            -1.2616114318370819e-01 3.2496652007102966e-01</leafValues></_>
        <_>
          <internalNodes>
            0 -1 48 -3.6205542273819447e-03</internalNodes>
          <leafValues>
            3.6021992564201355e-01 -1.3299460709095001e-01</leafValues></_>
        <_>
          <internalNodes>
            0 -1 185 5.5276351049542427e-03</internalNodes>
          <leafValues>
            9.3563959002494812e-02 -5.2288901805877686e-01</leafValues></_>
        <_>
          <internalNodes>
            0 -1 100 5.0480931997299194e-02</internalNodes>
          <leafValues>
            -5.5747639387845993e-02 9.2141354084014893e-01</leafValues></_>
        <_>
          <internalNodes>
            0 -1 56 2.7637742459774017e-02</internalNodes>
          <leafValues>
            9.1102495789527893e-02 -6.3163924217224121e-01</leafValues></_>
        <_>
          <internalNodes>
            0 -1 123 -3.7941478192806244e-02</internalNodes>
          <leafValues>
            -6.8353742361068726e-01 5.9161514043807983e-02</leafValues></_>
        <_>
          <internalNodes>
            0 -1 15 1.9321979489177465e-03</internalNodes>
          <leafValues>
            9.6679270267486572e-02 -4.0757754445075989e-01</leafValues></_>
        <_>
          <internalNodes>
            0 -1 187 -5.8270199224352837e-03</internalNodes>
          <leafValues>
            -5.0140064954757690e-01 9.0232670307159424e-02</leafValues></_>
        <_>
          <internalNodes>
            0 -1 14 -3.8163378834724426e-02</internalNodes>
          <leafValues>
            5.4482316970825195e-01 -8.7484769523143768e-02</leafValues></_>
        <_>
          <internalNodes>
            0 -1 127 -2.1165564656257629e-02</internalNodes>
          <leafValues>
            4.5372316241264343e-01 -8.4680788218975067e-02</leafValues></_>
        <_>
          <internalNodes>
            0 -1 82 1.1010200716555119e-02</internalNodes>
          <leafValues>
            1.1652151495218277e-01 -3.9689472317695618e-01</leafValues></_></weakClassifiers></_>
    <!-- stage 9 -->
    <_>
      <maxWeakCount>31</maxWeakCount>
      <stageThreshold>-6.4777034521102905e-01</stageThreshold>
      <weakClassifiers>
        <_>
          <internalNodes>
            0 -1 162 -2.0016799680888653e-04</internalNodes>
          <leafValues>
            4.2316257953643799e-02 4.7835737466812134e-01</leafValues></_>
        <_>
          <internalNodes>
            0 -1 46 -2.6074416935443878e-02</internalNodes>
          <leafValues>
            6.3982903957366943e-01 -4.7609131783246994e-02</leafValues></_>
        <_>
          <internalNodes>
            0 -1 33 1.2636305764317513e-03</internalNodes>
          <leafValues>
            -4.9833494424819946e-01 1.1027852445840836e-01</leafValues></_>
        <_>
          <internalNodes>
            0 -1 149 2.8108159312978387e-04</internalNodes>
          <leafValues>
            -1.6444817185401917e-01 2.5704076886177063e-01</leafValues></_>
        <_>
          <internalNodes>
            0 -1 97 2.1268222481012344e-02</internalNodes>
          <leafValues>
            -1.3729636371135712e-01 3.9521220326423645e-01</leafValues></_>
        <_>
          <internalNodes>
            0 -1 12 1.8890172243118286e-02</internalNodes>
          <leafValues>
            1.1444363743066788e-01 -5.0282448530197144e-01</leafValues></_>
        <_>
          <internalNodes>
            0 -1 89 -4.4275552034378052e-02</internalNodes>
          <leafValues>
            -6.8757683038711548e-01 8.4347851574420929e-02</leafValues></_>
        <_>
          <internalNodes>
            0 -1 121 -7.5273197144269943e-03</internalNodes>
          <leafValues>
            2.1255640685558319e-01 -2.1083341538906097e-01</leafValues></_>
        <_>
          <internalNodes>
            0 -1 205 -4.9352515488862991e-03</internalNodes>
          <leafValues>
            -4.2197129130363464e-01 1.1365418881177902e-01</leafValues></_>
        <_>
          <internalNodes>
            0 -1 147 1.0351042728871107e-03</internalNodes>
          <leafValues>
            -1.5783827006816864e-01 2.5743037462234497e-01</leafValues></_>
        <_>
          <internalNodes>
            0 -1 85 1.5732092782855034e-02</internalNodes>
          <leafValues>
            -8.4129281342029572e-02 5.9754455089569092e-01</leafValues></_>
        <_>
          <internalNodes>
            0 -1 103 -7.1248656604439020e-04</internalNodes>
          <leafValues>
            2.5226703286170959e-01 -1.7827729880809784e-01</leafValues></_>
        <_>
          <internalNodes>
            0 -1 102 -5.4561980068683624e-03</internalNodes>
          <leafValues>
            3.4499490261077881e-01 -1.3548557460308075e-01</leafValues></_>
        <_>
          <internalNodes>
            0 -1 155 -1.2098975479602814e-02</internalNodes>
          <leafValues>
            5.3669065237045288e-01 -8.6959846317768097e-02</leafValues></_>
        <_>
          <internalNodes>
            0 -1 220 4.1661961004137993e-03</internalNodes>
          <leafValues>
            6.2150225043296814e-02 -8.1522566080093384e-01</leafValues></_>
        <_>
          <internalNodes>
            0 -1 188 1.8125398491974920e-04</internalNodes>
          <leafValues>
            -2.3548276722431183e-01 1.9522537291049957e-01</leafValues></_>
        <_>
          <internalNodes>
            0 -1 216 -1.4716963283717632e-02</internalNodes>
          <leafValues>
            4.0655219554901123e-01 -1.2341160327196121e-01</leafValues></_>
        <_>
          <internalNodes>
            0 -1 141 3.6575533449649811e-02</internalNodes>
          <leafValues>
            6.5247081220149994e-02 -8.6235469579696655e-01</leafValues></_>
        <_>
          <internalNodes>
            0 -1 195 -8.4406998939812183e-04</internalNodes>
          <leafValues>
            2.7754610776901245e-01 -1.6770005226135254e-01</leafValues></_>
        <_>
          <internalNodes>
            0 -1 49 8.8862068951129913e-03</internalNodes>
          <leafValues>
            -1.7492713034152985e-01 2.9524099826812744e-01</leafValues></_>
        <_>
          <internalNodes>
            0 -1 83 3.3398192375898361e-02</internalNodes>
          <leafValues>
            -9.2446342110633850e-02 5.2204793691635132e-01</leafValues></_>
        <_>
          <internalNodes>
            0 -1 42 2.2440943866968155e-03</internalNodes>
          <leafValues>
            -1.9705504179000854e-01 2.2014003992080688e-01</leafValues></_>
        <_>
          <internalNodes>
            0 -1 57 2.0039221271872520e-03</internalNodes>
          <leafValues>
            -1.4649483561515808e-01 3.3919101953506470e-01</leafValues></_>
        <_>
          <internalNodes>
            0 -1 107 -6.3265562057495117e-03</internalNodes>
          <leafValues>
            -5.1720219850540161e-01 9.0223468840122223e-02</leafValues></_>
        <_>
          <internalNodes>
            0 -1 96 5.7280100882053375e-03</internalNodes>
          <leafValues>
            -9.7932189702987671e-02 4.5725345611572266e-01</leafValues></_>
        <_>
          <internalNodes>
            0 -1 172 -5.0829476676881313e-03</internalNodes>
          <leafValues>
            -5.0294750928878784e-01 8.5169970989227295e-02</leafValues></_>
        <_>
          <internalNodes>
            0 -1 154 -6.3017720822244883e-04</internalNodes>
          <leafValues>
            2.3205326497554779e-01 -1.7748436331748962e-01</leafValues></_>
        <_>
          <internalNodes>
            0 -1 18 5.1633737981319427e-02</internalNodes>
          <leafValues>
            -6.3449919223785400e-02 6.9006526470184326e-01</leafValues></_>
        <_>
          <internalNodes>
            0 -1 181 4.6414300799369812e-02</internalNodes>
          <leafValues>
            -5.3600180894136429e-02 7.1400141716003418e-01</leafValues></_>
        <_>
          <internalNodes>
            0 -1 193 6.9056078791618347e-03</internalNodes>
          <leafValues>
            -2.4379672110080719e-01 1.9248481094837189e-01</leafValues></_>
        <_>
          <internalNodes>
            0 -1 222 1.2113895267248154e-02</internalNodes>
          <leafValues>
            -7.1785584092140198e-02 6.8998652696609497e-01</leafValues></_></weakClassifiers></_></stages>
  <features>
    <_>
      <rects>
        <_>
          0 0 15 10 -1.</_>
        <_>
          0 5 15 5 2.</_></rects>
      <tilted>0</tilted></_>
    <_>
      <rects>
        <_>
          0 2 2 17 -1.</_>
        <_>
          1 2 1 17 2.</_></rects>
      <tilted>0</tilted></_>
    <_>
      <rects>
        <_>
          0 4 4 10 -1.</_>
        <_>
          2 4 2 10 2.</_></rects>
      <tilted>0</tilted></_>
    <_>
      <rects>
        <_>
          0 6 8 4 -1.</_>
        <_>
          0 6 4 2 2.</_>
        <_>
          4 8 4 2 2.</_></rects>
      <tilted>0</tilted></_>
    <_>
      <rects>
        <_>
          0 7 4 4 -1.</_>
        <_>
          2 7 2 4 2.</_></rects>
      <tilted>0</tilted></_>
    <_>
      <rects>
        <_>
          0 8 2 3 -1.</_>
        <_>
          1 8 1 3 2.</_></rects>
      <tilted>0</tilted></_>
    <_>
      <rects>
        <_>
          0 8 2 5 -1.</_>
        <_>
          1 8 1 5 2.</_></rects>
      <tilted>0</tilted></_>
    <_>
      <rects>
        <_>
          1 4 15 1 -1.</_>
        <_>
          6 4 5 1 3.</_></rects>
      <tilted>0</tilted></_>
    <_>
      <rects>
        <_>
          1 6 6 4 -1.</_>
        <_>
          1 6 3 2 2.</_>
        <_>
          4 8 3 2 2.</_></rects>
      <tilted>0</tilted></_>
    <_>
      <rects>
        <_>
          1 7 6 4 -1.</_>
        <_>
          3 7 2 4 3.</_></rects>
      <tilted>0</tilted></_>
    <_>
      <rects>
        <_>
          1 7 14 4 -1.</_>
        <_>
          8 7 7 4 2.</_></rects>
      <tilted>0</tilted></_>
    <_>
      <rects>
        <_>
          1 8 11 3 -1.</_>
        <_>
          1 9 11 1 3.</_></rects>
      <tilted>0</tilted></_>
    <_>
      <rects>
        <_>
          1 10 16 2 -1.</_>
        <_>
          9 10 8 2 2.</_></rects>
      <tilted>0</tilted></_>
    <_>
      <rects>
        <_>
          1 11 3 6 -1.</_>
        <_>
          1 13 3 2 3.</_></rects>
      <tilted>0</tilted></_>
    <_>
      <rects>
        <_>
          1 15 16 4 -1.</_>
        <_>
          1 17 16 2 2.</_></rects>
      <tilted>0</tilted></_>
    <_>
      <rects>
        <_>
          2 0 3 1 -1.</_>
        <_>
          3 0 1 1 3.</_></rects>
      <tilted>0</tilted></_>
    <_>
      <rects>
        <_>
          2 1 4 4 -1.</_>
        <_>
          2 3 4 2 2.</_></rects>
      <tilted>0</tilted></_>
    <_>
      <rects>
        <_>
          2 1 15 10 -1.</_>
        <_>
          2 6 15 5 2.</_></rects>
      <tilted>0</tilted></_>
    <_>
      <rects>
        <_>
          2 5 12 2 -1.</_>
        <_>
          6 5 4 2 3.</_></rects>
      <tilted>0</tilted></_>
    <_>
      <rects>
        <_>
          2 8 2 6 -1.</_>
        <_>
          2 10 2 2 3.</_></rects>
      <tilted>0</tilted></_>
    <_>
      <rects>
        <_>
          2 8 4 3 -1.</_>
        <_>
          4 8 2 3 2.</_></rects>
      <tilted>0</tilted></_>
    <_>
      <rects>
        <_>
          2 8 6 5 -1.</_>
        <_>
          5 8 3 5 2.</_></rects>
      <tilted>0</tilted></_>
    <_>
      <rects>
        <_>
          2 8 6 6 -1.</_>
        <_>
          5 8 3 6 2.</_></rects>
      <tilted>0</tilted></_>
    <_>
      <rects>
        <_>
          2 8 8 3 -1.</_>
        <_>
          6 8 4 3 2.</_></rects>
      <tilted>0</tilted></_>
    <_>
      <rects>
        <_>
          2 8 18 3 -1.</_>
        <_>
          11 8 9 3 2.</_></rects>
      <tilted>0</tilted></_>
    <_>
      <rects>
        <_>
          2 9 6 8 -1.</_>
        <_>
          2 9 3 4 2.</_>
        <_>
          5 13 3 4 2.</_></rects>
      <tilted>0</tilted></_>
    <_>
      <rects>
        <_>
          2 9 16 4 -1.</_>
        <_>
          10 9 8 4 2.</_></rects>
      <tilted>0</tilted></_>
    <_>
      <rects>
        <_>
          2 14 5 3 -1.</_>
        <_>
          2 15 5 1 3.</_></rects>
      <tilted>0</tilted></_>
    <_>
      <rects>
        <_>
          3 0 12 8 -1.</_>
        <_>
          3 4 12 4 2.</_></rects>
      <tilted>0</tilted></_>
    <_>
      <rects>
        <_>
          3 4 14 1 -1.</_>
        <_>
          10 4 7 1 2.</_></rects>
      <tilted>0</tilted></_>
    <_>
      <rects>
        <_>
          3 5 2 2 -1.</_>
        <_>
          3 5 1 1 2.</_>
        <_>
          4 6 1 1 2.</_></rects>
      <tilted>0</tilted></_>
    <_>
      <rects>
        <_>
          3 5 15 10 -1.</_>
        <_>
          3 10 15 5 2.</_></rects>
      <tilted>0</tilted></_>
    <_>
      <rects>
        <_>
          3 6 3 8 -1.</_>
        <_>
          4 6 1 8 3.</_></rects>
      <tilted>0</tilted></_>
    <_>
      <rects>
        <_>
          3 6 6 8 -1.</_>
        <_>
          6 6 3 8 2.</_></rects>
      <tilted>0</tilted></_>
    <_>
      <rects>
        <_>
          3 8 4 4 -1.</_>
        <_>
          5 8 2 4 2.</_></rects>
      <tilted>0</tilted></_>
    <_>
      <rects>
        <_>
          3 8 14 5 -1.</_>
        <_>
          10 8 7 5 2.</_></rects>
      <tilted>0</tilted></_>
    <_>
      <rects>
        <_>
          3 8 14 8 -1.</_>
        <_>
          10 8 7 8 2.</_></rects>
      <tilted>0</tilted></_>
    <_>
      <rects>
        <_>
          3 9 3 2 -1.</_>
        <_>
          4 9 1 2 3.</_></rects>
      <tilted>0</tilted></_>
    <_>
      <rects>
        <_>
          3 11 9 4 -1.</_>
        <_>
          6 11 3 4 3.</_></rects>
      <tilted>0</tilted></_>
    <_>
      <rects>
        <_>
          3 13 1 2 -1.</_>
        <_>
          3 14 1 1 2.</_></rects>
      <tilted>0</tilted></_>
    <_>
      <rects>
        <_>
          3 16 14 4 -1.</_>
        <_>
          3 16 7 2 2.</_>
        <_>
          10 18 7 2 2.</_></rects>
      <tilted>0</tilted></_>
    <_>
      <rects>
        <_>
          4 0 3 14 -1.</_>
        <_>
          5 0 1 14 3.</_></rects>
      <tilted>0</tilted></_>
    <_>
      <rects>
        <_>
          4 4 2 6 -1.</_>
        <_>
          4 4 1 3 2.</_>
        <_>
          5 7 1 3 2.</_></rects>
      <tilted>0</tilted></_>
    <_>
      <rects>
        <_>
          4 7 1 3 -1.</_>
        <_>
          4 8 1 1 3.</_></rects>
      <tilted>0</tilted></_>
    <_>
      <rects>
        <_>
          4 8 2 4 -1.</_>
        <_>
          5 8 1 4 2.</_></rects>
      <tilted>0</tilted></_>
    <_>
      <rects>
        <_>
          4 10 4 1 -1.</_>
        <_>
          6 10 2 1 2.</_></rects>
      <tilted>0</tilted></_>
    <_>
      <rects>
        <_>
          4 11 9 2 -1.</_>
        <_>
          7 11 3 2 3.</_></rects>
      <tilted>0</tilted></_>
    <_>
      <rects>
        <_>
          4 14 12 3 -1.</_>
        <_>
          8 14 4 3 3.</_></rects>
      <tilted>0</tilted></_>
    <_>
      <rects>
        <_>
          4 15 3 3 -1.</_>
        <_>
          4 16 3 1 3.</_></rects>
      <tilted>0</tilted></_>
    <_>
      <rects>
        <_>
          5 0 6 6 -1.</_>
        <_>
          5 2 6 2 3.</_></rects>
      <tilted>0</tilted></_>
    <_>
      <rects>
        <_>
          5 1 12 4 -1.</_>
        <_>
          5 1 6 2 2.</_>
        <_>
          11 3 6 2 2.</_></rects>
      <tilted>0</tilted></_>
    <_>
      <rects>
        <_>
          5 7 4 2 -1.</_>
        <_>
          5 7 2 1 2.</_>
        <_>
          7 8 2 1 2.</_></rects>
      <tilted>0</tilted></_>
    <_>
      <rects>
        <_>
          5 7 3 2 -1.</_>
        <_>
          5 8 3 1 2.</_></rects>
      <tilted>0</tilted></_>
    <_>
      <rects>
        <_>
          5 8 4 4 -1.</_>
        <_>
          5 8 2 2 2.</_>
        <_>
          7 10 2 2 2.</_></rects>
      <tilted>0</tilted></_>
    <_>
      <rects>
        <_>
          5 11 1 2 -1.</_>
        <_>
          5 12 1 1 2.</_></rects>
      <tilted>0</tilted></_>
    <_>
      <rects>
        <_>
          5 11 2 2 -1.</_>
        <_>
          5 12 2 1 2.</_></rects>
      <tilted>0</tilted></_>
    <_>
      <rects>
        <_>
          5 11 13 4 -1.</_>
        <_>
          5 13 13 2 2.</_></rects>
      <tilted>0</tilted></_>
    <_>
      <rects>
        <_>
          5 12 3 1 -1.</_>
        <_>
          6 12 1 1 3.</_></rects>
      <tilted>0</tilted></_>
    <_>
      <rects>
        <_>
          5 12 2 2 -1.</_>
        <_>
          5 12 1 1 2.</_>
        <_>
          6 13 1 1 2.</_></rects>
      <tilted>0</tilted></_>
    <_>
      <rects>
        <_>
          5 12 2 2 -1.</_>
        <_>
          5 13 2 1 2.</_></rects>
      <tilted>0</tilted></_>
    <_>
      <rects>
        <_>
          5 13 1 2 -1.</_>
        <_>
          5 14 1 1 2.</_></rects>
      <tilted>0</tilted></_>
    <_>
      <rects>
        <_>
          5 14 6 2 -1.</_>
        <_>
          5 14 3 1 2.</_>
        <_>
          8 15 3 1 2.</_></rects>
      <tilted>0</tilted></_>
    <_>
      <rects>
        <_>
          5 14 11 6 -1.</_>
        <_>
          5 17 11 3 2.</_></rects>
      <tilted>0</tilted></_>
    <_>
      <rects>
        <_>
          5 18 2 2 -1.</_>
        <_>
          5 18 1 1 2.</_>
        <_>
          6 19 1 1 2.</_></rects>
      <tilted>0</tilted></_>
    <_>
      <rects>
        <_>
          6 3 8 1 -1.</_>
        <_>
          10 3 4 1 2.</_></rects>
      <tilted>0</tilted></_>
    <_>
      <rects>
        <_>
          6 5 1 6 -1.</_>
        <_>
          6 8 1 3 2.</_></rects>
      <tilted>0</tilted></_>
    <_>
      <rects>
        <_>
          6 6 4 6 -1.</_>
        <_>
          6 6 2 3 2.</_>
        <_>
          8 9 2 3 2.</_></rects>
      <tilted>0</tilted></_>
    <_>
      <rects>
        <_>
          6 7 1 6 -1.</_>
        <_>
          6 10 1 3 2.</_></rects>
      <tilted>0</tilted></_>
    <_>
      <rects>
        <_>
          6 7 2 6 -1.</_>
        <_>
          6 9 2 2 3.</_></rects>
      <tilted>0</tilted></_>
    <_>
      <rects>
        <_>
          6 7 6 4 -1.</_>
        <_>
          6 7 3 2 2.</_>
        <_>
          9 9 3 2 2.</_></rects>
      <tilted>0</tilted></_>
    <_>
      <rects>
        <_>
          6 8 1 4 -1.</_>
        <_>
          6 10 1 2 2.</_></rects>
      <tilted>0</tilted></_>
    <_>
      <rects>
        <_>
          6 8 4 4 -1.</_>
        <_>
          6 8 2 2 2.</_>
        <_>
          8 10 2 2 2.</_></rects>
      <tilted>0</tilted></_>
    <_>
      <rects>
        <_>
          6 8 6 6 -1.</_>
        <_>
          6 8 3 3 2.</_>
        <_>
          9 11 3 3 2.</_></rects>
      <tilted>0</tilted></_>
    <_>
      <rects>
        <_>
          6 8 12 2 -1.</_>
        <_>
          12 8 6 2 2.</_></rects>
      <tilted>0</tilted></_>
    <_>
      <rects>
        <_>
          6 9 6 2 -1.</_>
        <_>
          8 9 2 2 3.</_></rects>
      <tilted>0</tilted></_>
    <_>
      <rects>
        <_>
          6 9 2 8 -1.</_>
        <_>
          6 13 2 4 2.</_></rects>
      <tilted>0</tilted></_>
    <_>
      <rects>
        <_>
          6 9 3 4 -1.</_>
        <_>
          6 11 3 2 2.</_></rects>
      <tilted>0</tilted></_>
    <_>
      <rects>
        <_>
          6 10 4 4 -1.</_>
        <_>
          8 10 2 4 2.</_></rects>
      <tilted>0</tilted></_>
    <_>
      <rects>
        <_>
          6 11 4 6 -1.</_>
        <_>
          6 14 4 3 2.</_></rects>
      <tilted>0</tilted></_>
    <_>
      <rects>
        <_>
          6 11 6 6 -1.</_>
        <_>
          6 14 6 3 2.</_></rects>
      <tilted>0</tilted></_>
    <_>
      <rects>
        <_>
          6 12 4 4 -1.</_>
        <_>
          6 14 4 2 2.</_></rects>
      <tilted>0</tilted></_>
    <_>
      <rects>
        <_>
          6 15 6 1 -1.</_>
        <_>
          9 15 3 1 2.</_></rects>
      <tilted>0</tilted></_>
    <_>
      <rects>
        <_>
          6 15 9 2 -1.</_>
        <_>
          9 15 3 2 3.</_></rects>
      <tilted>0</tilted></_>
    <_>
      <rects>
        <_>
          7 3 8 4 -1.</_>
        <_>
          11 3 4 4 2.</_></rects>
      <tilted>0</tilted></_>
    <_>
      <rects>
        <_>
          7 5 1 6 -1.</_>
        <_>
          7 7 1 2 3.</_></rects>
      <tilted>0</tilted></_>
    <_>
      <rects>
        <_>
          7 5 4 6 -1.</_>
        <_>
          7 5 2 3 2.</_>
        <_>
          9 8 2 3 2.</_></rects>
      <tilted>0</tilted></_>
    <_>
      <rects>
        <_>
          7 6 4 6 -1.</_>
        <_>
          7 6 2 3 2.</_>
        <_>
          9 9 2 3 2.</_></rects>
      <tilted>0</tilted></_>
    <_>
      <rects>
        <_>
          7 7 2 4 -1.</_>
        <_>
          7 7 1 2 2.</_>
        <_>
          8 9 1 2 2.</_></rects>
      <tilted>0</tilted></_>
    <_>
      <rects>
        <_>
          7 7 2 6 -1.</_>
        <_>
          7 7 1 3 2.</_>
        <_>
          8 10 1 3 2.</_></rects>
      <tilted>0</tilted></_>
    <_>
      <rects>
        <_>
          7 7 12 3 -1.</_>
        <_>
          11 7 4 3 3.</_></rects>
      <tilted>0</tilted></_>
    <_>
      <rects>
        <_>
          7 8 2 2 -1.</_>
        <_>
          7 8 1 1 2.</_>
        <_>
          8 9 1 1 2.</_></rects>
      <tilted>0</tilted></_>
    <_>
      <rects>
        <_>
          7 8 4 4 -1.</_>
        <_>
          7 8 2 2 2.</_>
        <_>
          9 10 2 2 2.</_></rects>
      <tilted>0</tilted></_>
    <_>
      <rects>
        <_>
          7 8 6 5 -1.</_>
        <_>
          9 8 2 5 3.</_></rects>
      <tilted>0</tilted></_>
    <_>
      <rects>
        <_>
          7 8 10 2 -1.</_>
        <_>
          12 8 5 2 2.</_></rects>
      <tilted>0</tilted></_>
    <_>
      <rects>
        <_>
          7 10 3 2 -1.</_>
        <_>
          8 10 1 2 3.</_></rects>
      <tilted>0</tilted></_>
    <_>
      <rects>
        <_>
          7 10 6 5 -1.</_>
        <_>
          9 10 2 5 3.</_></rects>
      <tilted>0</tilted></_>
    <_>
      <rects>
        <_>
          7 11 2 4 -1.</_>
        <_>
          8 11 1 4 2.</_></rects>
      <tilted>0</tilted></_>
    <_>
      <rects>
        <_>
          7 11 6 4 -1.</_>
        <_>
          9 11 2 4 3.</_></rects>
      <tilted>0</tilted></_>
    <_>
      <rects>
        <_>
          7 13 9 2 -1.</_>
        <_>
          10 13 3 2 3.</_></rects>
      <tilted>0</tilted></_>
    <_>
      <rects>
        <_>
          7 15 5 4 -1.</_>
        <_>
          7 17 5 2 2.</_></rects>
      <tilted>0</tilted></_>
    <_>
      <rects>
        <_>
          8 0 12 4 -1.</_>
        <_>
          8 0 6 2 2.</_>
        <_>
          14 2 6 2 2.</_></rects>
      <tilted>0</tilted></_>
    <_>
      <rects>
        <_>
          8 0 10 6 -1.</_>
        <_>
          8 3 10 3 2.</_></rects>
      <tilted>0</tilted></_>
    <_>
      <rects>
        <_>
          8 6 2 8 -1.</_>
        <_>
          8 6 1 4 2.</_>
        <_>
          9 10 1 4 2.</_></rects>
      <tilted>0</tilted></_>
    <_>
      <rects>
        <_>
          8 9 3 1 -1.</_>
        <_>
          9 9 1 1 3.</_></rects>
      <tilted>0</tilted></_>
    <_>
      <rects>
        <_>
          8 13 2 2 -1.</_>
        <_>
          8 14 2 1 2.</_></rects>
      <tilted>0</tilted></_>
    <_>
      <rects>
        <_>
          8 13 3 2 -1.</_>
        <_>
          8 14 3 1 2.</_></rects>
      <tilted>0</tilted></_>
    <_>
      <rects>
        <_>
          8 14 1 2 -1.</_>
        <_>
          8 15 1 1 2.</_></rects>
      <tilted>0</tilted></_>
    <_>
      <rects>
        <_>
          8 15 3 2 -1.</_>
        <_>
          9 15 1 2 3.</_></rects>
      <tilted>0</tilted></_>
    <_>
      <rects>
        <_>
          8 15 7 4 -1.</_>
        <_>
          8 17 7 2 2.</_></rects>
      <tilted>0</tilted></_>
    <_>
      <rects>
        <_>
          9 0 9 6 -1.</_>
        <_>
          9 3 9 3 2.</_></rects>
      <tilted>0</tilted></_>
    <_>
      <rects>
        <_>
          9 3 1 3 -1.</_>
        <_>
          9 4 1 1 3.</_></rects>
      <tilted>0</tilted></_>
    <_>
      <rects>
        <_>
          9 3 9 2 -1.</_>
        <_>
          9 4 9 1 2.</_></rects>
      <tilted>0</tilted></_>
    <_>
      <rects>
        <_>
          9 4 2 6 -1.</_>
        <_>
          10 4 1 6 2.</_></rects>
      <tilted>0</tilted></_>
    <_>
      <rects>
        <_>
          9 6 4 4 -1.</_>
        <_>
          11 6 2 4 2.</_></rects>
      <tilted>0</tilted></_>
    <_>
      <rects>
        <_>
          9 10 4 6 -1.</_>
        <_>
          9 12 4 2 3.</_></rects>
      <tilted>0</tilted></_>
    <_>
      <rects>
        <_>
          9 11 6 2 -1.</_>
        <_>
          12 11 3 2 2.</_></rects>
      <tilted>0</tilted></_>
    <_>
      <rects>
        <_>
          9 13 8 3 -1.</_>
        <_>
          13 13 4 3 2.</_></rects>
      <tilted>0</tilted></_>
    <_>
      <rects>
        <_>
          9 14 1 3 -1.</_>
        <_>
          9 15 1 1 3.</_></rects>
      <tilted>0</tilted></_>
    <_>
      <rects>
        <_>
          9 15 3 4 -1.</_>
        <_>
          9 17 3 2 2.</_></rects>
      <tilted>0</tilted></_>
    <_>
      <rects>
        <_>
          10 2 5 4 -1.</_>
        <_>
          10 4 5 2 2.</_></rects>
      <tilted>0</tilted></_>
    <_>
      <rects>
        <_>
          10 3 2 2 -1.</_>
        <_>
          10 4 2 1 2.</_></rects>
      <tilted>0</tilted></_>
    <_>
      <rects>
        <_>
          10 6 9 2 -1.</_>
        <_>
          13 6 3 2 3.</_></rects>
      <tilted>0</tilted></_>
    <_>
      <rects>
        <_>
          10 7 3 2 -1.</_>
        <_>
          11 7 1 2 3.</_></rects>
      <tilted>0</tilted></_>
    <_>
      <rects>
        <_>
          10 9 3 8 -1.</_>
        <_>
          10 13 3 4 2.</_></rects>
      <tilted>0</tilted></_>
    <_>
      <rects>
        <_>
          10 11 10 6 -1.</_>
        <_>
          15 11 5 6 2.</_></rects>
      <tilted>0</tilted></_>
    <_>
      <rects>
        <_>
          10 14 4 2 -1.</_>
        <_>
          10 14 2 1 2.</_>
        <_>
          12 15 2 1 2.</_></rects>
      <tilted>0</tilted></_>
    <_>
      <rects>
        <_>
          10 14 3 6 -1.</_>
        <_>
          10 17 3 3 2.</_></rects>
      <tilted>0</tilted></_>
    <_>
      <rects>
        <_>
          10 17 10 2 -1.</_>
        <_>
          15 17 5 2 2.</_></rects>
      <tilted>0</tilted></_>
    <_>
      <rects>
        <_>
          11 0 3 4 -1.</_>
        <_>
          11 2 3 2 2.</_></rects>
      <tilted>0</tilted></_>
    <_>
      <rects>
        <_>
          11 4 1 4 -1.</_>
        <_>
          11 6 1 2 2.</_></rects>
      <tilted>0</tilted></_>
    <_>
      <rects>
        <_>
          11 5 1 3 -1.</_>
        <_>
          11 6 1 1 3.</_></rects>
      <tilted>0</tilted></_>
    <_>
      <rects>
        <_>
          11 5 2 6 -1.</_>
        <_>
          11 7 2 2 3.</_></rects>
      <tilted>0</tilted></_>
    <_>
      <rects>
        <_>
          11 5 4 12 -1.</_>
        <_>
          11 11 4 6 2.</_></rects>
      <tilted>0</tilted></_>
    <_>
      <rects>
        <_>
          11 5 5 6 -1.</_>
        <_>
          11 7 5 2 3.</_></rects>
      <tilted>0</tilted></_>
    <_>
      <rects>
        <_>
          11 6 1 2 -1.</_>
        <_>
          11 7 1 1 2.</_></rects>
      <tilted>0</tilted></_>
    <_>
      <rects>
        <_>
          11 6 2 3 -1.</_>
        <_>
          12 6 1 3 2.</_></rects>
      <tilted>0</tilted></_>
    <_>
      <rects>
        <_>
          11 6 3 9 -1.</_>
        <_>
          11 9 3 3 3.</_></rects>
      <tilted>0</tilted></_>
    <_>
      <rects>
        <_>
          11 7 4 1 -1.</_>
        <_>
          13 7 2 1 2.</_></rects>
      <tilted>0</tilted></_>
    <_>
      <rects>
        <_>
          11 7 2 9 -1.</_>
        <_>
          11 10 2 3 3.</_></rects>
      <tilted>0</tilted></_>
    <_>
      <rects>
        <_>
          11 7 4 7 -1.</_>
        <_>
          13 7 2 7 2.</_></rects>
      <tilted>0</tilted></_>
    <_>
      <rects>
        <_>
          11 7 6 7 -1.</_>
        <_>
          14 7 3 7 2.</_></rects>
      <tilted>0</tilted></_>
    <_>
      <rects>
        <_>
          11 7 9 6 -1.</_>
        <_>
          11 9 9 2 3.</_></rects>
      <tilted>0</tilted></_>
    <_>
      <rects>
        <_>
          11 8 8 1 -1.</_>
        <_>
          15 8 4 1 2.</_></rects>
      <tilted>0</tilted></_>
    <_>
      <rects>
        <_>
          11 8 8 3 -1.</_>
        <_>
          15 8 4 3 2.</_></rects>
      <tilted>0</tilted></_>
    <_>
      <rects>
        <_>
          11 8 8 4 -1.</_>
        <_>
          15 8 4 4 2.</_></rects>
      <tilted>0</tilted></_>
    <_>
      <rects>
        <_>
          11 8 8 5 -1.</_>
        <_>
          15 8 4 5 2.</_></rects>
      <tilted>0</tilted></_>
    <_>
      <rects>
        <_>
          11 9 2 2 -1.</_>
        <_>
          12 9 1 2 2.</_></rects>
      <tilted>0</tilted></_>
    <_>
      <rects>
        <_>
          11 9 2 3 -1.</_>
        <_>
          12 9 1 3 2.</_></rects>
      <tilted>0</tilted></_>
    <_>
      <rects>
        <_>
          11 9 8 2 -1.</_>
        <_>
          11 10 8 1 2.</_></rects>
      <tilted>0</tilted></_>
    <_>
      <rects>
        <_>
          11 10 1 2 -1.</_>
        <_>
          11 11 1 1 2.</_></rects>
      <tilted>0</tilted></_>
    <_>
      <rects>
        <_>
          11 10 1 6 -1.</_>
        <_>
          11 12 1 2 3.</_></rects>
      <tilted>0</tilted></_>
    <_>
      <rects>
        <_>
          11 11 8 2 -1.</_>
        <_>
          15 11 4 2 2.</_></rects>
      <tilted>0</tilted></_>
    <_>
      <rects>
        <_>
          11 11 5 4 -1.</_>
        <_>
          11 13 5 2 2.</_></rects>
      <tilted>0</tilted></_>
    <_>
      <rects>
        <_>
          11 13 6 2 -1.</_>
        <_>
          13 13 2 2 3.</_></rects>
      <tilted>0</tilted></_>
    <_>
      <rects>
        <_>
          12 1 2 5 -1.</_>
        <_>
          13 1 1 5 2.</_></rects>
      <tilted>0</tilted></_>
    <_>
      <rects>
        <_>
          12 1 2 4 -1.</_>
        <_>
          12 3 2 2 2.</_></rects>
      <tilted>0</tilted></_>
    <_>
      <rects>
        <_>
          12 3 2 3 -1.</_>
        <_>
          12 4 2 1 3.</_></rects>
      <tilted>0</tilted></_>
    <_>
      <rects>
        <_>
          12 4 2 3 -1.</_>
        <_>
          12 5 2 1 3.</_></rects>
      <tilted>0</tilted></_>
    <_>
      <rects>
        <_>
          12 4 4 10 -1.</_>
        <_>
          12 9 4 5 2.</_></rects>
      <tilted>0</tilted></_>
    <_>
      <rects>
        <_>
          12 5 1 4 -1.</_>
        <_>
          12 7 1 2 2.</_></rects>
      <tilted>0</tilted></_>
    <_>
      <rects>
        <_>
          12 6 6 4 -1.</_>
        <_>
          14 6 2 4 3.</_></rects>
      <tilted>0</tilted></_>
    <_>
      <rects>
        <_>
          12 6 7 8 -1.</_>
        <_>
          12 10 7 4 2.</_></rects>
      <tilted>0</tilted></_>
    <_>
      <rects>
        <_>
          12 7 1 3 -1.</_>
        <_>
          12 8 1 1 3.</_></rects>
      <tilted>0</tilted></_>
    <_>
      <rects>
        <_>
          12 7 2 2 -1.</_>
        <_>
          12 8 2 1 2.</_></rects>
      <tilted>0</tilted></_>
    <_>
      <rects>
        <_>
          12 7 7 6 -1.</_>
        <_>
          12 10 7 3 2.</_></rects>
      <tilted>0</tilted></_>
    <_>
      <rects>
        <_>
          12 8 7 4 -1.</_>
        <_>
          12 10 7 2 2.</_></rects>
      <tilted>0</tilted></_>
    <_>
      <rects>
        <_>
          12 8 7 6 -1.</_>
        <_>
          12 10 7 2 3.</_></rects>
      <tilted>0</tilted></_>
    <_>
      <rects>
        <_>
          12 9 1 2 -1.</_>
        <_>
          12 10 1 1 2.</_></rects>
      <tilted>0</tilted></_>
    <_>
      <rects>
        <_>
          12 9 8 1 -1.</_>
        <_>
          16 9 4 1 2.</_></rects>
      <tilted>0</tilted></_>
    <_>
      <rects>
        <_>
          12 9 8 5 -1.</_>
        <_>
          16 9 4 5 2.</_></rects>
      <tilted>0</tilted></_>
    <_>
      <rects>
        <_>
          12 10 1 2 -1.</_>
        <_>
          12 11 1 1 2.</_></rects>
      <tilted>0</tilted></_>
    <_>
      <rects>
        <_>
          13 0 3 8 -1.</_>
        <_>
          13 4 3 4 2.</_></rects>
      <tilted>0</tilted></_>
    <_>
      <rects>
        <_>
          13 3 3 2 -1.</_>
        <_>
          14 3 1 2 3.</_></rects>
      <tilted>0</tilted></_>
    <_>
      <rects>
        <_>
          13 4 4 3 -1.</_>
        <_>
          13 5 4 1 3.</_></rects>
      <tilted>0</tilted></_>
    <_>
      <rects>
        <_>
          13 5 1 8 -1.</_>
        <_>
          13 9 1 4 2.</_></rects>
      <tilted>0</tilted></_>
    <_>
      <rects>
        <_>
          13 5 3 8 -1.</_>
        <_>
          14 5 1 8 3.</_></rects>
      <tilted>0</tilted></_>
    <_>
      <rects>
        <_>
          13 6 4 8 -1.</_>
        <_>
          13 10 4 4 2.</_></rects>
      <tilted>0</tilted></_>
    <_>
      <rects>
        <_>
          13 7 1 6 -1.</_>
        <_>
          13 9 1 2 3.</_></rects>
      <tilted>0</tilted></_>
    <_>
      <rects>
        <_>
          13 7 6 2 -1.</_>
        <_>
          16 7 3 2 2.</_></rects>
      <tilted>0</tilted></_>
    <_>
      <rects>
        <_>
          13 11 2 2 -1.</_>
        <_>
          13 11 1 1 2.</_>
        <_>
          14 12 1 1 2.</_></rects>
      <tilted>0</tilted></_>
    <_>
      <rects>
        <_>
          14 0 3 6 -1.</_>
        <_>
          14 3 3 3 2.</_></rects>
      <tilted>0</tilted></_>
    <_>
      <rects>
        <_>
          14 0 4 10 -1.</_>
        <_>
          14 5 4 5 2.</_></rects>
      <tilted>0</tilted></_>
    <_>
      <rects>
        <_>
          14 0 6 12 -1.</_>
        <_>
          14 6 6 6 2.</_></rects>
      <tilted>0</tilted></_>
    <_>
      <rects>
        <_>
          14 3 2 15 -1.</_>
        <_>
          14 8 2 5 3.</_></rects>
      <tilted>0</tilted></_>
    <_>
      <rects>
        <_>
          14 6 3 9 -1.</_>
        <_>
          15 6 1 9 3.</_></rects>
      <tilted>0</tilted></_>
    <_>
      <rects>
        <_>
          14 12 3 3 -1.</_>
        <_>
          15 12 1 3 3.</_></rects>
      <tilted>0</tilted></_>
    <_>
      <rects>
        <_>
          14 14 3 1 -1.</_>
        <_>
          15 14 1 1 3.</_></rects>
      <tilted>0</tilted></_>
    <_>
      <rects>
        <_>
          14 14 3 3 -1.</_>
        <_>
          15 14 1 3 3.</_></rects>
      <tilted>0</tilted></_>
    <_>
      <rects>
        <_>
          14 14 4 2 -1.</_>
        <_>
          14 15 4 1 2.</_></rects>
      <tilted>0</tilted></_>
    <_>
      <rects>
        <_>
          15 5 2 12 -1.</_>
        <_>
          15 9 2 4 3.</_></rects>
      <tilted>0</tilted></_>
    <_>
      <rects>
        <_>
          15 6 4 6 -1.</_>
        <_>
          17 6 2 6 2.</_></rects>
      <tilted>0</tilted></_>
    <_>
      <rects>
        <_>
          15 7 1 3 -1.</_>
        <_>
          15 8 1 1 3.</_></rects>
      <tilted>0</tilted></_>
    <_>
      <rects>
        <_>
          15 8 2 8 -1.</_>
        <_>
          15 12 2 4 2.</_></rects>
      <tilted>0</tilted></_>
    <_>
      <rects>
        <_>
          15 8 4 6 -1.</_>
        <_>
          17 8 2 6 2.</_></rects>
      <tilted>0</tilted></_>
    <_>
      <rects>
        <_>
          16 3 3 15 -1.</_>
        <_>
          17 3 1 15 3.</_></rects>
      <tilted>0</tilted></_>
    <_>
      <rects>
        <_>
          16 6 1 3 -1.</_>
        <_>
          16 7 1 1 3.</_></rects>
      <tilted>0</tilted></_>
    <_>
      <rects>
        <_>
          16 6 3 5 -1.</_>
        <_>
          17 6 1 5 3.</_></rects>
      <tilted>0</tilted></_>
    <_>
      <rects>
        <_>
          16 9 3 1 -1.</_>
        <_>
          17 9 1 1 3.</_></rects>
      <tilted>0</tilted></_>
    <_>
      <rects>
        <_>
          16 10 2 8 -1.</_>
        <_>
          17 10 1 8 2.</_></rects>
      <tilted>0</tilted></_>
    <_>
      <rects>
        <_>
          16 11 3 3 -1.</_>
        <_>
          16 12 3 1 3.</_></rects>
      <tilted>0</tilted></_>
    <_>
      <rects>
        <_>
          16 13 2 1 -1.</_>
        <_>
          17 13 1 1 2.</_></rects>
      <tilted>0</tilted></_>
    <_>
      <rects>
        <_>
          16 14 2 1 -1.</_>
        <_>
          17 14 1 1 2.</_></rects>
      <tilted>0</tilted></_>
    <_>
      <rects>
        <_>
          17 5 2 3 -1.</_>
        <_>
          18 5 1 3 2.</_></rects>
      <tilted>0</tilted></_>
    <_>
      <rects>
        <_>
          17 7 2 5 -1.</_>
        <_>
          18 7 1 5 2.</_></rects>
      <tilted>0</tilted></_>
    <_>
      <rects>
        <_>
          17 8 2 3 -1.</_>
        <_>
          18 8 1 3 2.</_></rects>
      <tilted>0</tilted></_>
    <_>
      <rects>
        <_>
          17 8 2 4 -1.</_>
        <_>
          17 10 2 2 2.</_></rects>
      <tilted>0</tilted></_>
    <_>
      <rects>
        <_>
          17 9 2 1 -1.</_>
        <_>
          18 9 1 1 2.</_></rects>
      <tilted>0</tilted></_>
    <_>
      <rects>
        <_>
          17 9 2 2 -1.</_>
        <_>
          18 9 1 2 2.</_></rects>
      <tilted>0</tilted></_>
    <_>
      <rects>
        <_>
          17 9 2 3 -1.</_>
        <_>
          18 9 1 3 2.</_></rects>
      <tilted>0</tilted></_>
    <_>
      <rects>
        <_>
          17 9 2 2 -1.</_>
        <_>
          17 10 2 1 2.</_></rects>
      <tilted>0</tilted></_>
    <_>
      <rects>
        <_>
          17 10 2 1 -1.</_>
        <_>
          18 10 1 1 2.</_></rects>
      <tilted>0</tilted></_>
    <_>
      <rects>
        <_>
          17 10 3 3 -1.</_>
        <_>
          17 11 3 1 3.</_></rects>
      <tilted>0</tilted></_>
    <_>
      <rects>
        <_>
          17 11 2 1 -1.</_>
        <_>
          18 11 1 1 2.</_></rects>
      <tilted>0</tilted></_>
    <_>
      <rects>
        <_>
          18 1 2 2 -1.</_>
        <_>
          18 1 1 1 2.</_>
        <_>
          19 2 1 1 2.</_></rects>
      <tilted>0</tilted></_>
    <_>
      <rects>
        <_>
          18 2 2 12 -1.</_>
        <_>
          18 2 1 6 2.</_>
        <_>
          19 8 1 6 2.</_></rects>
      <tilted>0</tilted></_>
    <_>
      <rects>
        <_>
          18 4 2 8 -1.</_>
        <_>
          18 4 1 4 2.</_>
        <_>
          19 8 1 4 2.</_></rects>
      <tilted>0</tilted></_>
    <_>
      <rects>
        <_>
          18 7 1 12 -1.</_>
        <_>
          18 13 1 6 2.</_></rects>
      <tilted>0</tilted></_>
    <_>
      <rects>
        <_>
          18 7 2 7 -1.</_>
        <_>
          19 7 1 7 2.</_></rects>
      <tilted>0</tilted></_>
    <_>
      <rects>
        <_>
          18 8 2 4 -1.</_>
        <_>
          19 8 1 4 2.</_></rects>
      <tilted>0</tilted></_>
    <_>
      <rects>
        <_>
          18 8 2 5 -1.</_>
        <_>
          19 8 1 5 2.</_></rects>
      <tilted>0</tilted></_>
    <_>
      <rects>
        <_>
          18 9 1 3 -1.</_>
        <_>
          18 10 1 1 3.</_></rects>
      <tilted>0</tilted></_>
    <_>
      <rects>
        <_>
          18 9 2 3 -1.</_>
        <_>
          19 9 1 3 2.</_></rects>
      <tilted>0</tilted></_>
    <_>
      <rects>
        <_>
          18 9 1 8 -1.</_>
        <_>
          18 13 1 4 2.</_></rects>
      <tilted>0</tilted></_>
    <_>
      <rects>
        <_>
          18 10 2 6 -1.</_>
        <_>
          19 10 1 6 2.</_></rects>
      <tilted>0</tilted></_>
    <_>
      <rects>
        <_>
          18 11 1 3 -1.</_>
        <_>
          18 12 1 1 3.</_></rects>
      <tilted>0</tilted></_></features></cascade>
</opencv_storage>
