<?xml version="1.0"?>
<opencv_storage>
<cascade>
  <stageType>BOOST</stageType>
  <featureType>HAAR</featureType>
  <height>20</height>
  <width>20</width>
  <stageParams>
    <boostType>GAB</boostType>
    <minHitRate>9.9500000476837158e-01</minHitRate>
    <maxFalseAlarm>5.0000000000000000e-01</maxFalseAlarm>
    <weightTrimRate>9.4999999999999996e-01</weightTrimRate>
    <maxDepth>1</maxDepth>
    <maxWeakCount>100</maxWeakCount></stageParams>
  <featureParams>
    <maxCatCount>0</maxCatCount>
    <featSize>1</featSize>
    <mode>BASIC</mode></featureParams>
  <stageNum>10</stageNum>
  <stages>
    <!-- stage 0 -->
    <_>
      <maxWeakCount>6</maxWeakCount>
      <stageThreshold>-1.0382913351058960e+00</stageThreshold>
      <weakClassifiers>
        <_>
          <internalNodes>
            0 -1 30 -9.2530157417058945e-03</internalNodes>
          <leafValues>
            7.5680935382843018e-01 -5.8898305892944336e-01</leafValues></_>
        <_>
          <internalNodes>
            0 -1 8 -2.5320135056972504e-02</internalNodes>
          <leafValues>
            6.3830131292343140e-01 -5.5953639745712280e-01</leafValues></_>
        <_>
          <internalNodes>
            0 -1 55 -1.4477252028882504e-02</internalNodes>
          <leafValues>
            6.2926995754241943e-01 -3.7039715051651001e-01</leafValues></_>
        <_>
          <internalNodes>
            0 -1 34 6.9997331593185663e-04</internalNodes>
          <leafValues>
            -6.6298627853393555e-01 3.6383086442947388e-01</leafValues></_>
        <_>
          <internalNodes>
            0 -1 84 -3.6339629441499710e-03</internalNodes>
          <leafValues>
            6.6419005393981934e-01 -3.3788299560546875e-01</leafValues></_>
        <_>
          <internalNodes>
            0 -1 2 3.5352597478777170e-03</internalNodes>
          <leafValues>
            -3.7108492851257324e-01 4.5467743277549744e-01</leafValues></_></weakClassifiers></_>
    <!-- stage 1 -->
    <_>
      <maxWeakCount>9</maxWeakCount>
      <stageThreshold>-8.8463044166564941e-01</stageThreshold>
      <weakClassifiers>
        <_>
          <internalNodes>
            0 -1 28 -1.1604730039834976e-02</internalNodes>
          <leafValues>
            6.2107396125793457e-01 -4.4903582334518433e-01</leafValues></_>
        <_>
          <internalNodes>
            0 -1 46 -1.5124867670238018e-02</internalNodes>
          <leafValues>
            4.7316703200340271e-01 -5.9148031473159790e-01</leafValues></_>
        <_>
          <internalNodes>
            0 -1 6 -5.5866888724267483e-03</internalNodes>
          <leafValues>
            6.2457948923110962e-01 -3.8442903757095337e-01</leafValues></_>
        <_>
          <internalNodes>
            0 -1 93 2.5140158832073212e-03</internalNodes>
          <leafValues>
            -3.8561812043190002e-01 5.4658699035644531e-01</leafValues></_>
        <_>
          <internalNodes>
            0 -1 78 2.8569770511239767e-03</internalNodes>
          <leafValues>
            2.0601817965507507e-01 -7.1299207210540771e-01</leafValues></_>
        <_>
          <internalNodes>
            0 -1 3 -6.0078559909015894e-04</internalNodes>
          <leafValues>
            3.0326950550079346e-01 -4.7618073225021362e-01</leafValues></_>
        <_>
          <internalNodes>
            0 -1 44 -1.5053017996251583e-02</internalNodes>
          <leafValues>
            5.8119899034500122e-01 -2.7380612492561340e-01</leafValues></_>
        <_>
          <internalNodes>
            0 -1 19 -1.8310774117708206e-02</internalNodes>
          <leafValues>
            3.2551008462905884e-01 -4.6231871843338013e-01</leafValues></_>
        <_>
          <internalNodes>
            0 -1 47 4.5638252049684525e-02</internalNodes>
          <leafValues>
            1.7976315319538116e-01 -7.6688247919082642e-01</leafValues></_></weakClassifiers></_>
    <!-- stage 2 -->
    <_>
      <maxWeakCount>7</maxWeakCount>
      <stageThreshold>-5.7572823762893677e-01</stageThreshold>
      <weakClassifiers>
        <_>
          <internalNodes>
            0 -1 23 -2.0669519901275635e-02</internalNodes>
          <leafValues>
            -8.8297873735427856e-01 5.3012049198150635e-01</leafValues></_>
        <_>
          <internalNodes>
            0 -1 97 5.1955860108137131e-03</internalNodes>
          <leafValues>
            -3.8655197620391846e-01 6.4090985059738159e-01</leafValues></_>
        <_>
          <internalNodes>
            0 -1 32 -5.1504792645573616e-03</internalNodes>
          <leafValues>
            5.3459686040878296e-01 -4.3219786882400513e-01</leafValues></_>
        <_>
          <internalNodes>
            0 -1 29 -1.1778918560594320e-03</internalNodes>
          <leafValues>
            3.9708107709884644e-01 -5.7984614372253418e-01</leafValues></_>
        <_>
          <internalNodes>
            0 -1 75 -1.5948982909321785e-03</internalNodes>
          <leafValues>
            3.2962477207183838e-01 -5.1566779613494873e-01</leafValues></_>
        <_>
          <internalNodes>
            0 -1 96 -7.9956734552979469e-03</internalNodes>
          <leafValues>
            6.7293745279312134e-01 -2.7418857812881470e-01</leafValues></_>
        <_>
          <internalNodes>
            0 -1 79 3.1552547588944435e-03</internalNodes>
          <leafValues>
            2.3731108009815216e-01 -7.9327744245529175e-01</leafValues></_></weakClassifiers></_>
    <!-- stage 3 -->
    <_>
      <maxWeakCount>11</maxWeakCount>
      <stageThreshold>-9.1042965650558472e-01</stageThreshold>
      <weakClassifiers>
        <_>
          <internalNodes>
            0 -1 43 -3.6200680769979954e-03</internalNodes>
          <leafValues>
            6.4668095111846924e-01 -3.7019231915473938e-01</leafValues></_>
        <_>
          <internalNodes>
            0 -1 59 4.7462941147387028e-03</internalNodes>
          <leafValues>
            -4.7531875967979431e-01 4.3020260334014893e-01</leafValues></_>
        <_>
          <internalNodes>
            0 -1 9 -1.0001733899116516e-02</internalNodes>
          <leafValues>
            4.0367287397384644e-01 -4.3297219276428223e-01</leafValues></_>
        <_>
          <internalNodes>
            0 -1 83 -1.9600812345743179e-02</internalNodes>
          <leafValues>
            5.8259040117263794e-01 -2.7706068754196167e-01</leafValues></_>
        <_>
          <internalNodes>
            0 -1 41 -1.0930854827165604e-02</internalNodes>
          <leafValues>
            5.8647185564041138e-01 -2.7755880355834961e-01</leafValues></_>
        <_>
          <internalNodes>
            0 -1 2 1.2782692909240723e-02</internalNodes>
          <leafValues>
            -2.4655742943286896e-01 5.5281883478164673e-01</leafValues></_>
        <_>
          <internalNodes>
            0 -1 61 -4.6777550596743822e-04</internalNodes>
          <leafValues>
            -7.0388650894165039e-01 2.0706009864807129e-01</leafValues></_>
        <_>
          <internalNodes>
            0 -1 107 -6.0887001454830170e-03</internalNodes>
          <leafValues>
            5.0560736656188965e-01 -2.7519634366035461e-01</leafValues></_>
        <_>
          <internalNodes>
            0 -1 24 9.3503680545836687e-04</internalNodes>
          <leafValues>
            1.6376325488090515e-01 -8.0308192968368530e-01</leafValues></_>
        <_>
          <internalNodes>
            0 -1 69 2.2874696180224419e-02</internalNodes>
          <leafValues>
            1.4547905325889587e-01 -7.9354983568191528e-01</leafValues></_>
        <_>
          <internalNodes>
            0 -1 62 1.7076609656214714e-03</internalNodes>
          <leafValues>
            1.4277496933937073e-01 -7.9772084951400757e-01</leafValues></_></weakClassifiers></_>
    <!-- stage 4 -->
    <_>
      <maxWeakCount>10</maxWeakCount>
      <stageThreshold>-9.5761805772781372e-01</stageThreshold>
      <weakClassifiers>
        <_>
          <internalNodes>
            0 -1 7 1.3138111680746078e-02</internalNodes>
          <leafValues>
            -1.9038817286491394e-01 6.8355995416641235e-01</leafValues></_>
        <_>
          <internalNodes>
            0 -1 99 4.1509843431413174e-03</internalNodes>
          <leafValues>
            -3.2995566725730896e-01 5.2251857519149780e-01</leafValues></_>
        <_>
          <internalNodes>
            0 -1 22 -5.6019937619566917e-03</internalNodes>
          <leafValues>
            3.9175692200660706e-01 -4.6965885162353516e-01</leafValues></_>
        <_>
          <internalNodes>
            0 -1 4 -5.1907072775065899e-03</internalNodes>
          <leafValues>
            1.6766403615474701e-01 -8.0490833520889282e-01</leafValues></_>
        <_>
          <internalNodes>
            0 -1 37 4.7220028936862946e-03</internalNodes>
          <leafValues>
            -3.7072515487670898e-01 3.9175194501876831e-01</leafValues></_>
        <_>
          <internalNodes>
            0 -1 67 -1.6040220856666565e-02</internalNodes>
          <leafValues>
            3.5172992944717407e-01 -3.7297561764717102e-01</leafValues></_>
        <_>
          <internalNodes>
            0 -1 16 -1.7395128961652517e-03</internalNodes>
          <leafValues>
            -7.7027249336242676e-01 1.7742127180099487e-01</leafValues></_>
        <_>
          <internalNodes>
            0 -1 74 -1.4653746620751917e-04</internalNodes>
          <leafValues>
            2.2221167385578156e-01 -4.9999612569808960e-01</leafValues></_>
        <_>
          <internalNodes>
            0 -1 73 -1.5993013978004456e-02</internalNodes>
          <leafValues>
            -8.2160955667495728e-01 1.7308862507343292e-01</leafValues></_>
        <_>
          <internalNodes>
            0 -1 72 6.0174133628606796e-02</internalNodes>
          <leafValues>
            9.4054721295833588e-02 -8.5659050941467285e-01</leafValues></_></weakClassifiers></_>
    <!-- stage 5 -->
    <_>
      <maxWeakCount>11</maxWeakCount>
      <stageThreshold>-7.3332971334457397e-01</stageThreshold>
      <weakClassifiers>
        <_>
          <internalNodes>
            0 -1 42 1.1941418051719666e-04</internalNodes>
          <leafValues>
            -2.6213592290878296e-01 5.9488272666931152e-01</leafValues></_>
        <_>
          <internalNodes>
            0 -1 98 6.6556488163769245e-03</internalNodes>
          <leafValues>
            -3.5517442226409912e-01 4.5865806937217712e-01</leafValues></_>
        <_>
          <internalNodes>
            0 -1 68 -1.3976971386000514e-03</internalNodes>
          <leafValues>
            4.9885269999504089e-01 -3.1467816233634949e-01</leafValues></_>
        <_>
          <internalNodes>
            0 -1 76 -9.9723003804683685e-03</internalNodes>
          <leafValues>
            -8.5293346643447876e-01 1.7396602034568787e-01</leafValues></_>
        <_>
          <internalNodes>
            0 -1 104 -1.5090780332684517e-02</internalNodes>
          <leafValues>
            6.1455643177032471e-01 -2.5363644957542419e-01</leafValues></_>
        <_>
          <internalNodes>
            0 -1 18 1.2956808495800942e-04</internalNodes>
          <leafValues>
            -5.0922971963882446e-01 2.5644510984420776e-01</leafValues></_>
        <_>
          <internalNodes>
            0 -1 11 7.2367058601230383e-04</internalNodes>
          <leafValues>
            2.1483950316905975e-01 -5.2367281913757324e-01</leafValues></_>
        <_>
          <internalNodes>
            0 -1 56 3.6296683829277754e-03</internalNodes>
          <leafValues>
            -2.1962486207485199e-01 6.3240253925323486e-01</leafValues></_>
        <_>
          <internalNodes>
            0 -1 95 -1.5583541244268417e-02</internalNodes>
          <leafValues>
            4.9157035350799561e-01 -2.1504029631614685e-01</leafValues></_>
        <_>
          <internalNodes>
            0 -1 66 -8.1862080842256546e-03</internalNodes>
          <leafValues>
            6.8481123447418213e-01 -1.6188019514083862e-01</leafValues></_>
        <_>
          <internalNodes>
            0 -1 53 -1.0161977261304855e-02</internalNodes>
          <leafValues>
            4.0358993411064148e-01 -2.7532044053077698e-01</leafValues></_></weakClassifiers></_>
    <!-- stage 6 -->
    <_>
      <maxWeakCount>14</maxWeakCount>
      <stageThreshold>-8.1661194562911987e-01</stageThreshold>
      <weakClassifiers>
        <_>
          <internalNodes>
            0 -1 35 -3.0347127467393875e-03</internalNodes>
          <leafValues>
            4.7766321897506714e-01 -5.6989246606826782e-01</leafValues></_>
        <_>
          <internalNodes>
            0 -1 17 1.7399359494447708e-02</internalNodes>
          <leafValues>
            -3.3382827043533325e-01 4.8373261094093323e-01</leafValues></_>
        <_>
          <internalNodes>
            0 -1 80 4.1972403414547443e-03</internalNodes>
          <leafValues>
            -2.5013756752014160e-01 5.7160937786102295e-01</leafValues></_>
        <_>
          <internalNodes>
            0 -1 51 -2.3347716778516769e-03</internalNodes>
          <leafValues>
            -9.4064295291900635e-01 1.5710142254829407e-01</leafValues></_>
        <_>
          <internalNodes>
            0 -1 65 -3.2223646994680166e-03</internalNodes>
          <leafValues>
            -8.8466149568557739e-01 1.1119274795055389e-01</leafValues></_>
        <_>
          <internalNodes>
            0 -1 60 -9.4696879386901855e-03</internalNodes>
          <leafValues>
            3.4166651964187622e-01 -3.6226981878280640e-01</leafValues></_>
        <_>
          <internalNodes>
            0 -1 40 -2.5514673907309771e-03</internalNodes>
          <leafValues>
            4.0200737118721008e-01 -3.1287002563476562e-01</leafValues></_>
        <_>
          <internalNodes>
            0 -1 88 2.3972510825842619e-04</internalNodes>
          <leafValues>
            -4.1077753901481628e-01 3.1798157095909119e-01</leafValues></_>
        <_>
          <internalNodes>
            0 -1 0 2.0408321171998978e-02</internalNodes>
          <leafValues>
            -1.9051393866539001e-01 6.0057258605957031e-01</leafValues></_>
        <_>
          <internalNodes>
            0 -1 90 -3.2712714746594429e-03</internalNodes>
          <leafValues>
            -7.6588815450668335e-01 1.5829356014728546e-01</leafValues></_>
        <_>
          <internalNodes>
            0 -1 85 -1.2031308142468333e-03</internalNodes>
          <leafValues>
            4.0911164879798889e-01 -2.5618031620979309e-01</leafValues></_>
        <_>
          <internalNodes>
            0 -1 52 -5.3821559995412827e-03</internalNodes>
          <leafValues>
            5.5500137805938721e-01 -1.9032759964466095e-01</leafValues></_>
        <_>
          <internalNodes>
            0 -1 25 -3.4262519329786301e-03</internalNodes>
          <leafValues>
            -7.9132533073425293e-01 1.2912489473819733e-01</leafValues></_>
        <_>
          <internalNodes>
            0 -1 15 -3.1926766037940979e-02</internalNodes>
          <leafValues>
            -7.7596676349639893e-01 1.1042186617851257e-01</leafValues></_></weakClassifiers></_>
    <!-- stage 7 -->
    <_>
      <maxWeakCount>13</maxWeakCount>
      <stageThreshold>-1.0035476684570312e+00</stageThreshold>
      <weakClassifiers>
        <_>
          <internalNodes>
            0 -1 49 -5.7564332382753491e-04</internalNodes>
          <leafValues>
            5.4679805040359497e-01 -3.1343284249305725e-01</leafValues></_>
        <_>
          <internalNodes>
            0 -1 77 -1.0671697091311216e-03</internalNodes>
          <leafValues>
            3.2719871401786804e-01 -4.5633050799369812e-01</leafValues></_>
        <_>
          <internalNodes>
            0 -1 108 5.5850269272923470e-03</internalNodes>
          <leafValues>
            -2.3163826763629913e-01 5.7289582490921021e-01</leafValues></_>
        <_>
          <internalNodes>
            0 -1 39 -2.6832162402570248e-03</internalNodes>
          <leafValues>
            2.8779813647270203e-01 -4.5963051915168762e-01</leafValues></_>
        <_>
          <internalNodes>
            0 -1 5 -1.6015264391899109e-01</internalNodes>
          <leafValues>
            -7.7748209238052368e-01 1.0202807188034058e-01</leafValues></_>
        <_>
          <internalNodes>
            0 -1 102 2.0333293825387955e-02</internalNodes>
          <leafValues>
            -2.7190470695495605e-01 4.4459065794944763e-01</leafValues></_>
        <_>
          <internalNodes>
            0 -1 91 1.9510381389409304e-03</internalNodes>
          <leafValues>
            2.7428254485130310e-01 -5.8932220935821533e-01</leafValues></_>
        <_>
          <internalNodes>
            0 -1 26 -1.5834081568755209e-04</internalNodes>
          <leafValues>
            -6.2902605533599854e-01 1.2007101625204086e-01</leafValues></_>
        <_>
          <internalNodes>
            0 -1 54 1.9662626087665558e-02</internalNodes>
          <leafValues>
            1.2861953675746918e-01 -7.5847977399826050e-01</leafValues></_>
        <_>
          <internalNodes>
            0 -1 57 -2.8150212019681931e-02</internalNodes>
          <leafValues>
            4.3008100986480713e-01 -2.4543555080890656e-01</leafValues></_>
        <_>
          <internalNodes>
            0 -1 1 1.5114309266209602e-02</internalNodes>
          <leafValues>
            -3.6948812007904053e-01 2.6062235236167908e-01</leafValues></_>
        <_>
          <internalNodes>
            0 -1 21 7.9375635832548141e-03</internalNodes>
          <leafValues>
            -2.3029567301273346e-01 5.2743911743164062e-01</leafValues></_>
        <_>
          <internalNodes>
            0 -1 81 -2.0186137408018112e-03</internalNodes>
          <leafValues>
            -7.8117990493774414e-01 1.6774648427963257e-01</leafValues></_></weakClassifiers></_>
    <!-- stage 8 -->
    <_>
      <maxWeakCount>15</maxWeakCount>
      <stageThreshold>-7.2964090108871460e-01</stageThreshold>
      <weakClassifiers>
        <_>
          <internalNodes>
            0 -1 36 -1.0169852524995804e-02</internalNodes>
          <leafValues>
            5.2128666639328003e-01 -3.4470990300178528e-01</leafValues></_>
        <_>
          <internalNodes>
            0 -1 82 -1.4817623421549797e-02</internalNodes>
          <leafValues>
            5.7161033153533936e-01 -2.0058913528919220e-01</leafValues></_>
        <_>
          <internalNodes>
            0 -1 33 9.3876607716083527e-03</internalNodes>
          <leafValues>
            -2.1125160157680511e-01 4.9727001786231995e-01</leafValues></_>
        <_>
          <internalNodes>
            0 -1 48 1.2797312811017036e-03</internalNodes>
          <leafValues>
            -7.4748498201370239e-01 1.4362473785877228e-01</leafValues></_>
        <_>
          <internalNodes>
            0 -1 70 -4.3409358710050583e-02</internalNodes>
          <leafValues>
            -6.7640960216522217e-01 1.8118776381015778e-01</leafValues></_>
        <_>
          <internalNodes>
            0 -1 105 -2.3840921930968761e-03</internalNodes>
          <leafValues>
            4.6095824241638184e-01 -2.6647543907165527e-01</leafValues></_>
        <_>
          <internalNodes>
            0 -1 103 -7.0649767294526100e-03</internalNodes>
          <leafValues>
            6.0255283117294312e-01 -2.1548388898372650e-01</leafValues></_>
        <_>
          <internalNodes>
            0 -1 106 -3.1295674853026867e-03</internalNodes>
          <leafValues>
            6.4654380083084106e-01 -1.5095977485179901e-01</leafValues></_>
        <_>
          <internalNodes>
            0 -1 13 -3.0170613899827003e-03</internalNodes>
          <leafValues>
            -7.6771819591522217e-01 1.5732917189598083e-01</leafValues></_>
        <_>
          <internalNodes>
            0 -1 94 -5.4220482707023621e-03</internalNodes>
          <leafValues>
            4.8131069540977478e-01 -2.2468477487564087e-01</leafValues></_>
        <_>
          <internalNodes>
            0 -1 87 -6.9874087348580360e-03</internalNodes>
          <leafValues>
            -9.2659723758697510e-01 1.1067298054695129e-01</leafValues></_>
        <_>
          <internalNodes>
            0 -1 31 7.8379996120929718e-03</internalNodes>
          <leafValues>
            -2.3027938604354858e-01 4.8045191168785095e-01</leafValues></_>
        <_>
          <internalNodes>
            0 -1 10 1.8588790670037270e-02</internalNodes>
          <leafValues>
            1.3776206970214844e-01 -8.9671188592910767e-01</leafValues></_>
        <_>
          <internalNodes>
            0 -1 14 -2.7202588971704245e-03</internalNodes>
          <leafValues>
            -8.1946384906768799e-01 8.3451651036739349e-02</leafValues></_>
        <_>
          <internalNodes>
            0 -1 71 -8.8988225907087326e-03</internalNodes>
          <leafValues>
            4.6718096733093262e-01 -2.1755816042423248e-01</leafValues></_></weakClassifiers></_>
    <!-- stage 9 -->
    <_>
      <maxWeakCount>15</maxWeakCount>
      <stageThreshold>-9.3330448865890503e-01</stageThreshold>
      <weakClassifiers>
        <_>
          <internalNodes>
            0 -1 63 1.7426956910640001e-03</internalNodes>
          <leafValues>
            4.5805367827415466e-01 -6.0759490728378296e-01</leafValues></_>
        <_>
          <internalNodes>
            0 -1 27 1.2424015440046787e-02</internalNodes>
          <leafValues>
            -3.2379540801048279e-01 4.3817541003227234e-01</leafValues></_>
        <_>
          <internalNodes>
            0 -1 100 2.8395641129463911e-03</internalNodes>
          <leafValues>
            -3.1572541594505310e-01 3.9304801821708679e-01</leafValues></_>
        <_>
          <internalNodes>
            0 -1 101 -5.9277340769767761e-03</internalNodes>
          <leafValues>
            4.5687696337699890e-01 -2.7560514211654663e-01</leafValues></_>
        <_>
          <internalNodes>
            0 -1 58 1.6521073412150145e-03</internalNodes>
          <leafValues>
            -5.0403457880020142e-01 2.3486275970935822e-01</leafValues></_>
        <_>
          <internalNodes>
            0 -1 12 -3.0134499073028564e-02</internalNodes>
          <leafValues>
            1.9588568806648254e-01 -6.3751208782196045e-01</leafValues></_>
        <_>
          <internalNodes>
            0 -1 38 1.0826563462615013e-02</internalNodes>
          <leafValues>
            -2.0095880329608917e-01 5.8230781555175781e-01</leafValues></_>
        <_>
          <internalNodes>
            0 -1 20 -2.4582324549555779e-03</internalNodes>
          <leafValues>
            3.0141559243202209e-01 -3.5007992386817932e-01</leafValues></_>
        <_>
          <internalNodes>
            0 -1 64 -1.6809771768748760e-03</internalNodes>
          <leafValues>
            -6.3677752017974854e-01 1.6040837764739990e-01</leafValues></_>
        <_>
          <internalNodes>
            0 -1 109 -8.3219148218631744e-03</internalNodes>
          <leafValues>
            6.2550920248031616e-01 -1.7486305534839630e-01</leafValues></_>
        <_>
          <internalNodes>
            0 -1 89 2.3060445673763752e-03</internalNodes>
          <leafValues>
            -2.2746707499027252e-01 4.2867758870124817e-01</leafValues></_>
        <_>
          <internalNodes>
            0 -1 45 -2.4606922641396523e-02</internalNodes>
          <leafValues>
            2.8699207305908203e-01 -3.0430185794830322e-01</leafValues></_>
        <_>
          <internalNodes>
            0 -1 50 -3.2787919044494629e-03</internalNodes>
          <leafValues>
            4.5177188515663147e-01 -2.0165909826755524e-01</leafValues></_>
        <_>
          <internalNodes>
            0 -1 92 3.1726178713142872e-03</internalNodes>
          <leafValues>
            -2.5336733460426331e-01 3.9957970380783081e-01</leafValues></_>
        <_>
          <internalNodes>
            0 -1 86 -1.3596645556390285e-02</internalNodes>
          <leafValues>
            -7.0618546009063721e-01 1.5492981672286987e-01</leafValues></_></weakClassifiers></_></stages>
  <features>
    <_>
      <rects>
        <_>
          0 6 4 5 -1.</_>
        <_>
          2 6 2 5 2.</_></rects>
      <tilted>0</tilted></_>
    <_>
      <rects>
        <_>
          1 5 6 9 -1.</_>
        <_>
          3 5 2 9 3.</_></rects>
      <tilted>0</tilted></_>
    <_>
      <rects>
        <_>
          1 10 4 4 -1.</_>
        <_>
          3 10 2 4 2.</_></rects>
      <tilted>0</tilted></_>
    <_>
      <rects>
        <_>
          2 5 5 6 -1.</_>
        <_>
          2 7 5 2 3.</_></rects>
      <tilted>0</tilted></_>
    <_>
      <rects>
        <_>
          2 6 12 8 -1.</_>
        <_>
          8 6 6 8 2.</_></rects>
      <tilted>0</tilted></_>
    <_>
      <rects>
        <_>
          2 6 12 9 -1.</_>
        <_>
          8 6 6 9 2.</_></rects>
      <tilted>0</tilted></_>
    <_>
      <rects>
        <_>
          2 7 4 2 -1.</_>
        <_>
          4 7 2 2 2.</_></rects>
      <tilted>0</tilted></_>
    <_>
      <rects>
        <_>
          2 12 6 3 -1.</_>
        <_>
          4 12 2 3 3.</_></rects>
      <tilted>0</tilted></_>
    <_>
      <rects>
        <_>
          3 4 6 9 -1.</_>
        <_>
          6 4 3 9 2.</_></rects>
      <tilted>0</tilted></_>
    <_>
      <rects>
        <_>
          3 5 4 5 -1.</_>
        <_>
          5 5 2 5 2.</_></rects>
      <tilted>0</tilted></_>
    <_>
      <rects>
        <_>
          3 5 6 4 -1.</_>
        <_>
          3 7 6 2 2.</_></rects>
      <tilted>0</tilted></_>
    <_>
      <rects>
        <_>
          3 6 3 3 -1.</_>
        <_>
          3 7 3 1 3.</_></rects>
      <tilted>0</tilted></_>
    <_>
      <rects>
        <_>
          3 6 10 10 -1.</_>
        <_>
          8 6 5 10 2.</_></rects>
      <tilted>0</tilted></_>
    <_>
      <rects>
        <_>
          3 7 2 3 -1.</_>
        <_>
          3 8 2 1 3.</_></rects>
      <tilted>0</tilted></_>
    <_>
      <rects>
        <_>
          3 8 2 3 -1.</_>
        <_>
          3 9 2 1 3.</_></rects>
      <tilted>0</tilted></_>
    <_>
      <rects>
        <_>
          3 8 12 2 -1.</_>
        <_>
          9 8 6 2 2.</_></rects>
      <tilted>0</tilted></_>
    <_>
      <rects>
        <_>
          3 10 2 3 -1.</_>
        <_>
          3 11 2 1 3.</_></rects>
      <tilted>0</tilted></_>
    <_>
      <rects>
        <_>
          3 11 6 6 -1.</_>
        <_>
          3 11 3 3 2.</_>
        <_>
          6 14 3 3 2.</_></rects>
      <tilted>0</tilted></_>
    <_>
      <rects>
        <_>
          3 12 2 2 -1.</_>
        <_>
          4 12 1 2 2.</_></rects>
      <tilted>0</tilted></_>
    <_>
      <rects>
        <_>
          4 3 15 4 -1.</_>
        <_>
          9 3 5 4 3.</_></rects>
      <tilted>0</tilted></_>
    <_>
      <rects>
        <_>
          4 4 2 4 -1.</_>
        <_>
          5 4 1 4 2.</_></rects>
      <tilted>0</tilted></_>
    <_>
      <rects>
        <_>
          4 4 4 4 -1.</_>
        <_>
          4 4 2 2 2.</_>
        <_>
          6 6 2 2 2.</_></rects>
      <tilted>0</tilted></_>
    <_>
      <rects>
        <_>
          4 4 4 3 -1.</_>
        <_>
          6 4 2 3 2.</_></rects>
      <tilted>0</tilted></_>
    <_>
      <rects>
        <_>
          4 4 6 12 -1.</_>
        <_>
          4 10 6 6 2.</_></rects>
      <tilted>0</tilted></_>
    <_>
      <rects>
        <_>
          4 7 1 3 -1.</_>
        <_>
          4 8 1 1 3.</_></rects>
      <tilted>0</tilted></_>
    <_>
      <rects>
        <_>
          4 8 2 3 -1.</_>
        <_>
          4 9 2 1 3.</_></rects>
      <tilted>0</tilted></_>
    <_>
      <rects>
        <_>
          4 9 1 2 -1.</_>
        <_>
          4 10 1 1 2.</_></rects>
      <tilted>0</tilted></_>
    <_>
      <rects>
        <_>
          4 11 4 6 -1.</_>
        <_>
          4 11 2 3 2.</_>
        <_>
          6 14 2 3 2.</_></rects>
      <tilted>0</tilted></_>
    <_>
      <rects>
        <_>
          4 11 6 4 -1.</_>
        <_>
          7 11 3 4 2.</_></rects>
      <tilted>0</tilted></_>
    <_>
      <rects>
        <_>
          4 13 2 4 -1.</_>
        <_>
          4 15 2 2 2.</_></rects>
      <tilted>0</tilted></_>
    <_>
      <rects>
        <_>
          4 13 8 2 -1.</_>
        <_>
          8 13 4 2 2.</_></rects>
      <tilted>0</tilted></_>
    <_>
      <rects>
        <_>
          4 16 10 2 -1.</_>
        <_>
          4 16 5 1 2.</_>
        <_>
          9 17 5 1 2.</_></rects>
      <tilted>0</tilted></_>
    <_>
      <rects>
        <_>
          5 3 3 4 -1.</_>
        <_>
          5 5 3 2 2.</_></rects>
      <tilted>0</tilted></_>
    <_>
      <rects>
        <_>
          5 4 4 4 -1.</_>
        <_>
          5 4 2 2 2.</_>
        <_>
          7 6 2 2 2.</_></rects>
      <tilted>0</tilted></_>
    <_>
      <rects>
        <_>
          5 7 10 12 -1.</_>
        <_>
          5 13 10 6 2.</_></rects>
      <tilted>0</tilted></_>
    <_>
      <rects>
        <_>
          5 13 6 2 -1.</_>
        <_>
          8 13 3 2 2.</_></rects>
      <tilted>0</tilted></_>
    <_>
      <rects>
        <_>
          5 13 6 3 -1.</_>
        <_>
          8 13 3 3 2.</_></rects>
      <tilted>0</tilted></_>
    <_>
      <rects>
        <_>
          5 15 8 2 -1.</_>
        <_>
          5 15 4 1 2.</_>
        <_>
          9 16 4 1 2.</_></rects>
      <tilted>0</tilted></_>
    <_>
      <rects>
        <_>
          6 0 4 4 -1.</_>
        <_>
          6 2 4 2 2.</_></rects>
      <tilted>0</tilted></_>
    <_>
      <rects>
        <_>
          6 3 4 3 -1.</_>
        <_>
          8 3 2 3 2.</_></rects>
      <tilted>0</tilted></_>
    <_>
      <rects>
        <_>
          6 4 2 2 -1.</_>
        <_>
          6 5 2 1 2.</_></rects>
      <tilted>0</tilted></_>
    <_>
      <rects>
        <_>
          6 4 7 3 -1.</_>
        <_>
          6 5 7 1 3.</_></rects>
      <tilted>0</tilted></_>
    <_>
      <rects>
        <_>
          6 8 9 2 -1.</_>
        <_>
          9 8 3 2 3.</_></rects>
      <tilted>0</tilted></_>
    <_>
      <rects>
        <_>
          6 14 4 2 -1.</_>
        <_>
          8 14 2 2 2.</_></rects>
      <tilted>0</tilted></_>
    <_>
      <rects>
        <_>
          6 16 6 4 -1.</_>
        <_>
          6 18 6 2 2.</_></rects>
      <tilted>0</tilted></_>
    <_>
      <rects>
        <_>
          7 0 5 6 -1.</_>
        <_>
          7 3 5 3 2.</_></rects>
      <tilted>0</tilted></_>
    <_>
      <rects>
        <_>
          7 1 7 9 -1.</_>
        <_>
          7 4 7 3 3.</_></rects>
      <tilted>0</tilted></_>
    <_>
      <rects>
        <_>
          7 4 7 15 -1.</_>
        <_>
          7 9 7 5 3.</_></rects>
      <tilted>0</tilted></_>
    <_>
      <rects>
        <_>
          7 7 8 12 -1.</_>
        <_>
          7 13 8 6 2.</_></rects>
      <tilted>0</tilted></_>
    <_>
      <rects>
        <_>
          7 14 2 2 -1.</_>
        <_>
          8 14 1 2 2.</_></rects>
      <tilted>0</tilted></_>
    <_>
      <rects>
        <_>
          7 14 6 2 -1.</_>
        <_>
          7 14 3 1 2.</_>
        <_>
          10 15 3 1 2.</_></rects>
      <tilted>0</tilted></_>
    <_>
      <rects>
        <_>
          7 15 3 1 -1.</_>
        <_>
          8 15 1 1 3.</_></rects>
      <tilted>0</tilted></_>
    <_>
      <rects>
        <_>
          8 0 4 3 -1.</_>
        <_>
          8 1 4 1 3.</_></rects>
      <tilted>0</tilted></_>
    <_>
      <rects>
        <_>
          8 2 2 6 -1.</_>
        <_>
          8 4 2 2 3.</_></rects>
      <tilted>0</tilted></_>
    <_>
      <rects>
        <_>
          8 2 2 15 -1.</_>
        <_>
          8 7 2 5 3.</_></rects>
      <tilted>0</tilted></_>
    <_>
      <rects>
        <_>
          8 2 4 6 -1.</_>
        <_>
          8 4 4 2 3.</_></rects>
      <tilted>0</tilted></_>
    <_>
      <rects>
        <_>
          8 3 3 3 -1.</_>
        <_>
          8 4 3 1 3.</_></rects>
      <tilted>0</tilted></_>
    <_>
      <rects>
        <_>
          8 3 6 6 -1.</_>
        <_>
          8 5 6 2 3.</_></rects>
      <tilted>0</tilted></_>
    <_>
      <rects>
        <_>
          8 4 3 9 -1.</_>
        <_>
          8 7 3 3 3.</_></rects>
      <tilted>0</tilted></_>
    <_>
      <rects>
        <_>
          8 4 4 9 -1.</_>
        <_>
          8 7 4 3 3.</_></rects>
      <tilted>0</tilted></_>
    <_>
      <rects>
        <_>
          8 4 10 4 -1.</_>
        <_>
          8 4 5 2 2.</_>
        <_>
          13 6 5 2 2.</_></rects>
      <tilted>0</tilted></_>
    <_>
      <rects>
        <_>
          8 9 7 10 -1.</_>
        <_>
          8 14 7 5 2.</_></rects>
      <tilted>0</tilted></_>
    <_>
      <rects>
        <_>
          8 14 3 2 -1.</_>
        <_>
          9 14 1 2 3.</_></rects>
      <tilted>0</tilted></_>
    <_>
      <rects>
        <_>
          8 14 3 3 -1.</_>
        <_>
          9 14 1 3 3.</_></rects>
      <tilted>0</tilted></_>
    <_>
      <rects>
        <_>
          8 15 3 1 -1.</_>
        <_>
          9 15 1 1 3.</_></rects>
      <tilted>0</tilted></_>
    <_>
      <rects>
        <_>
          8 15 3 2 -1.</_>
        <_>
          9 15 1 2 3.</_></rects>
      <tilted>0</tilted></_>
    <_>
      <rects>
        <_>
          8 17 4 2 -1.</_>
        <_>
          8 18 4 1 2.</_></rects>
      <tilted>0</tilted></_>
    <_>
      <rects>
        <_>
          9 2 5 6 -1.</_>
        <_>
          9 4 5 2 3.</_></rects>
      <tilted>0</tilted></_>
    <_>
      <rects>
        <_>
          9 3 1 2 -1.</_>
        <_>
          9 4 1 1 2.</_></rects>
      <tilted>0</tilted></_>
    <_>
      <rects>
        <_>
          9 3 4 15 -1.</_>
        <_>
          11 3 2 15 2.</_></rects>
      <tilted>0</tilted></_>
    <_>
      <rects>
        <_>
          9 3 4 15 -1.</_>
        <_>
          9 8 4 5 3.</_></rects>
      <tilted>0</tilted></_>
    <_>
      <rects>
        <_>
          9 4 4 3 -1.</_>
        <_>
          9 5 4 1 3.</_></rects>
      <tilted>0</tilted></_>
    <_>
      <rects>
        <_>
          9 6 4 12 -1.</_>
        <_>
          9 12 4 6 2.</_></rects>
      <tilted>0</tilted></_>
    <_>
      <rects>
        <_>
          9 7 3 8 -1.</_>
        <_>
          9 11 3 4 2.</_></rects>
      <tilted>0</tilted></_>
    <_>
      <rects>
        <_>
          9 8 2 4 -1.</_>
        <_>
          9 10 2 2 2.</_></rects>
      <tilted>0</tilted></_>
    <_>
      <rects>
        <_>
          9 8 2 6 -1.</_>
        <_>
          9 10 2 2 3.</_></rects>
      <tilted>0</tilted></_>
    <_>
      <rects>
        <_>
          9 8 2 8 -1.</_>
        <_>
          9 12 2 4 2.</_></rects>
      <tilted>0</tilted></_>
    <_>
      <rects>
        <_>
          9 8 6 1 -1.</_>
        <_>
          12 8 3 1 2.</_></rects>
      <tilted>0</tilted></_>
    <_>
      <rects>
        <_>
          9 8 6 2 -1.</_>
        <_>
          12 8 3 2 2.</_></rects>
      <tilted>0</tilted></_>
    <_>
      <rects>
        <_>
          9 14 3 4 -1.</_>
        <_>
          10 14 1 4 3.</_></rects>
      <tilted>0</tilted></_>
    <_>
      <rects>
        <_>
          9 14 6 2 -1.</_>
        <_>
          9 14 3 1 2.</_>
        <_>
          12 15 3 1 2.</_></rects>
      <tilted>0</tilted></_>
    <_>
      <rects>
        <_>
          9 16 3 1 -1.</_>
        <_>
          10 16 1 1 3.</_></rects>
      <tilted>0</tilted></_>
    <_>
      <rects>
        <_>
          9 16 4 4 -1.</_>
        <_>
          9 18 4 2 2.</_></rects>
      <tilted>0</tilted></_>
    <_>
      <rects>
        <_>
          9 16 6 4 -1.</_>
        <_>
          9 18 6 2 2.</_></rects>
      <tilted>0</tilted></_>
    <_>
      <rects>
        <_>
          9 17 3 2 -1.</_>
        <_>
          9 18 3 1 2.</_></rects>
      <tilted>0</tilted></_>
    <_>
      <rects>
        <_>
          10 1 1 2 -1.</_>
        <_>
          10 2 1 1 2.</_></rects>
      <tilted>0</tilted></_>
    <_>
      <rects>
        <_>
          10 3 1 15 -1.</_>
        <_>
          10 8 1 5 3.</_></rects>
      <tilted>0</tilted></_>
    <_>
      <rects>
        <_>
          10 8 1 8 -1.</_>
        <_>
          10 12 1 4 2.</_></rects>
      <tilted>0</tilted></_>
    <_>
      <rects>
        <_>
          10 12 2 3 -1.</_>
        <_>
          10 13 2 1 3.</_></rects>
      <tilted>0</tilted></_>
    <_>
      <rects>
        <_>
          10 13 4 2 -1.</_>
        <_>
          10 13 2 1 2.</_>
        <_>
          12 14 2 1 2.</_></rects>
      <tilted>0</tilted></_>
    <_>
      <rects>
        <_>
          10 15 3 2 -1.</_>
        <_>
          11 15 1 2 3.</_></rects>
      <tilted>0</tilted></_>
    <_>
      <rects>
        <_>
          10 15 3 3 -1.</_>
        <_>
          11 15 1 3 3.</_></rects>
      <tilted>0</tilted></_>
    <_>
      <rects>
        <_>
          10 15 2 3 -1.</_>
        <_>
          10 16 2 1 3.</_></rects>
      <tilted>0</tilted></_>
    <_>
      <rects>
        <_>
          10 15 3 2 -1.</_>
        <_>
          10 16 3 1 2.</_></rects>
      <tilted>0</tilted></_>
    <_>
      <rects>
        <_>
          10 15 6 2 -1.</_>
        <_>
          10 15 3 1 2.</_>
        <_>
          13 16 3 1 2.</_></rects>
      <tilted>0</tilted></_>
    <_>
      <rects>
        <_>
          10 15 10 4 -1.</_>
        <_>
          10 15 5 2 2.</_>
        <_>
          15 17 5 2 2.</_></rects>
      <tilted>0</tilted></_>
    <_>
      <rects>
        <_>
          10 18 7 2 -1.</_>
        <_>
          10 19 7 1 2.</_></rects>
      <tilted>0</tilted></_>
    <_>
      <rects>
        <_>
          11 12 4 4 -1.</_>
        <_>
          11 12 2 2 2.</_>
        <_>
          13 14 2 2 2.</_></rects>
      <tilted>0</tilted></_>
    <_>
      <rects>
        <_>
          11 14 6 2 -1.</_>
        <_>
          14 14 3 2 2.</_></rects>
      <tilted>0</tilted></_>
    <_>
      <rects>
        <_>
          12 10 4 6 -1.</_>
        <_>
          12 10 2 3 2.</_>
        <_>
          14 13 2 3 2.</_></rects>
      <tilted>0</tilted></_>
    <_>
      <rects>
        <_>
          12 15 6 1 -1.</_>
        <_>
          14 15 2 1 3.</_></rects>
      <tilted>0</tilted></_>
    <_>
      <rects>
        <_>
          13 3 1 6 -1.</_>
        <_>
          13 5 1 2 3.</_></rects>
      <tilted>0</tilted></_>
    <_>
      <rects>
        <_>
          13 6 4 7 -1.</_>
        <_>
          15 6 2 7 2.</_></rects>
      <tilted>0</tilted></_>
    <_>
      <rects>
        <_>
          13 7 3 3 -1.</_>
        <_>
          14 7 1 3 3.</_></rects>
      <tilted>0</tilted></_>
    <_>
      <rects>
        <_>
          13 12 4 6 -1.</_>
        <_>
          13 12 2 3 2.</_>
        <_>
          15 15 2 3 2.</_></rects>
      <tilted>0</tilted></_>
    <_>
      <rects>
        <_>
          14 6 2 4 -1.</_>
        <_>
          14 6 1 2 2.</_>
        <_>
          15 8 1 2 2.</_></rects>
      <tilted>0</tilted></_>
    <_>
      <rects>
        <_>
          14 7 2 2 -1.</_>
        <_>
          15 7 1 2 2.</_></rects>
      <tilted>0</tilted></_>
    <_>
      <rects>
        <_>
          14 7 3 4 -1.</_>
        <_>
          15 7 1 4 3.</_></rects>
      <tilted>0</tilted></_>
    <_>
      <rects>
        <_>
          14 9 2 6 -1.</_>
        <_>
          14 9 1 3 2.</_>
        <_>
          15 12 1 3 2.</_></rects>
      <tilted>0</tilted></_>
    <_>
      <rects>
        <_>
          18 6 2 8 -1.</_>
        <_>
          18 6 1 4 2.</_>
        <_>
          19 10 1 4 2.</_></rects>
      <tilted>0</tilted></_></features></cascade>
</opencv_storage>
